tree
version=v2
num_class=1
num_tree_per_iteration=1
label_index=0
max_feature_idx=6
objective=regression
feature_names=Column_0 Column_1 Column_2 Column_3 Column_4 Column_5 Column_6
feature_infos=[37.771057999999996:37.804769999999998] [-122.418954:-122.388013] [2.3240857124328609:26.583322525024411] [37.771057999999996:37.804769999999998] [-122.418954:-122.388013] [2.3240857124328609:26.583322525024411] [0.018559073076332658:3.7500555217479317]
tree_sizes=3781 3950 3950 3935 3961 3970 3967 3956 3961 3970 3984 4006 3969 3965 3990 4000 3994 4012 4011 3983 3990 4002 3999 4001 4011 4018 4003 4014 4008 4031 4014 4016 3997 4052 4035 4015 4025 4009 4021 4052 4038 4033 4029 4040 4061 4029 4032 4060 4029 4027 4076 4063 4010 3388 4040 4016 4057 4051 4049 4067 4014 4046 4055 4054 4082 4035 4059 4056 4048 4071 4062 4085 3761 4012 4088 4067 4051 4056 4056 4084 3518 4026 4025 4017 3551 4084 4087 4059 4087 4082 4028 4040 4084 4033 4044 4072 4082 4068 4106 4091 4060 4073 4065 4098 4088 4062 3247 4086 4061 4069 4096 4091 3976 4078 4052 4077 4087 4054 4042 4111 3608 4096 4052 4054 4117 4070 2258 4113 4078 4098 4096 4138 4070 4089 4076 2596 4124 3524 4106 4095 4094 3948 4082 4100 4123 4109 4111 4098 4108 4115 3915 4143 4101 4122 3038 4112 4124 4053 4118 4116 4089 2963 4124 4126 4136 4092 4131 4080 4120 4137 4125 4122 4125 3481 4125 4126 4117 3628 4115 4114 4112 4142 4094 4147 4153 4114 4096 4147 4102 4136 4123 4107 4131 4154 4112 4075 4148 4138 3393 4139 4107 4138 4151 4113 4159 4136 4159 4145 4130 3243 4171 4135 2899 3738 4163 4143 4136 4118 4119 4160 4149 4112 4165 4126 4160 4116 4117 4138 4135 4124 4136 4157 3164 4171 3762 4155 4160 2739 2825 4150 4158 4157 4152 4165 4178 4146 4156 4184 3515 4137 3590 3914 4123 4096 4155 4150 4161 4168 4177 4184 4113 4167 4173 4178 4122 4170 4181 4184 4200 4197 4185 3750 4198 4175 4224 4191 3693 3238 4193 3263 4174 4159 4195 4223 4198 4194 4174 4172 4185 4113 4171 4122 4195 4183 4174 4174 4179 4187 4202 4204 3442 4196 4195 4181 4215 4208 3879 4207 4190 3187 4195 4206 4212 4205 4215 4215 4205 4196 3122 3806 3274 4179 4203 4175 4216 4117 4201 4164 4221 4203 4221 4217 4214 4170 4198 4203 4192 4186 4217 3795 4192 4183 4191 4169 4091 4241 3295 3377 4190 4214 4210 4201 4194 3517 4183 3135 4186 4209 4191 4229 3047 4198 4211 4216 4230 4220 4207 4182 4224 4201 4221 4212 4171

Tree=0
num_leaves=48
num_cat=0
split_feature=6 6 6 6 6 6 6 3 6 6 6 1 4 6 5 0 3 1 6 5 5 1 1 1 4 6 4 0 3 4 6 0 3 0 5 0 6 2 4 6 2 0 0 4 1 4 1
split_gain=34904 6998.41 4092.49 1373.71 1071.97 928.053 450.021 486.115 335.65 164.443 156.182 124.943 123.848 116.606 111.997 106.564 95.4889 86.9907 75.4086 74.4363 70.455 61.8554 58.7477 56.7354 53.9868 53.8342 52.199 50.8777 69.1755 43.6291 33.6592 32.5248 32.2779 31.4653 30.1164 28.2609 27.4056 25.7799 29.7517 22.8965 22.0514 20.5174 20.2882 20.1226 19.9216 19.8223 19.6114
threshold=1.1413565442774771 1.7074042582870936 0.9042414945071402 0.46119046009272396 2.3931735328025368 1.4187878066219861 0.63242031710708069 37.781185500000007 2.0563507913113179 0.76140084824563925 0.96203434588861036 -122.41456649999999 -122.3945385 2.8121827892971121 8.4017372131347674 37.781185500000007 37.78437450000002 -122.41456649999999 0.35411322130818579 10.594522476196293 12.895608901977541 -122.39878799999998 -122.3945385 -122.41456649999999 -122.39666100000001 1.4121979900555532 -122.3945385 37.779588000000011 37.790801000000009 -122.4008365 1.6090248037977235 37.802361500000011 37.789690500000006 37.780782500000008 17.083589553833011 37.779588000000011 1.5777808280331136 13.692461013793947 -122.39188599999999 1.5322739289948772 4.9984030723571786 37.775707000000004 37.795408500000008 -122.4008365 -122.41456649999999 -122.400938 -122.3945385
decision_type=2 2 2 2 2 2 2 2 2 2 2 2 2 2 2 2 2 2 2 2 2 2 2 2 2 2 2 2 2 2 2 2 2 2 2 2 2 2 2 2 2 2 2 2 2 2 2
left_child=2 5 3 18 8 14 37 15 17 43 33 36 27 45 25 44 -12 -3 -1 32 -11 34 41 -10 35 -2 46 28 -13 -20 -29 -26 40 -4 42 -19 39 38 -5 -7 -18 -14 -16 -9 -8 -6 -25
right_child=1 4 10 6 13 11 7 9 23 20 16 12 22 -15 21 -17 19 24 29 -21 -22 -23 -24 26 31 -27 -28 30 -30 -31 -32 -33 -34 -35 -36 -37 -38 -39 -40 -41 -42 -43 -44 -45 -46 -47 -48
leaf_value=2.0901765427698029 2.1833385506640819 2.2065895086455845 2.1360407319750658 2.1299447303978143 2.2462010946336748 2.1899843259729814 2.1054810464552398 2.1491752890770348 2.2206387509509149 2.1535762607686344 2.164182980521514 2.2092596659119326 2.1865048161734357 2.2566342744334782 2.1809991835155702 2.1437768810990616 2.1714766499186227 2.2284170917013824 2.117271168670503 2.1823250850715352 2.1708050636566596 2.1965140503588287 2.1920959040140162 2.2356600322982123 2.2159842219255648 2.172208631164076 2.2232931229522599 2.2018100434258931 2.2351977562934433 2.1022386378074085 2.2089241308705589 2.2012143500334655 2.1739301023073985 2.156996989758095 2.2027026510363128 2.2196858125640069 2.1997515389836577 2.1192581358191234 2.1197930172460655 2.1735417592595536 2.1621642412831799 2.2036231443263703 2.1966693783287461 2.1409782400766892 2.1256610519755088 2.239406907733247 2.2289508077710107
leaf_count=3662 38366 7298 787 16349 7044 1587 509 3808 5401 16373 19485 9637 755 7889 6622 3864 4583 5574 2910 6869 2776 10334 11930 17077 12946 4901 5751 21137 1151 5737 9704 1685 12082 7996 860 11068 1041 3899 3506 1816 5712 9640 944 14024 12572 11000 5849
internal_value=0 0.244357 -0.379379 -0.512542 0.445432 0.0923748 -0.46336 -0.412844 0.383129 -0.348575 -0.171025 0.172704 0.183971 0.619966 0.00379443 -0.553105 -0.148902 0.319239 -0.822924 -0.11277 -0.284225 0.0683264 0.123879 0.455443 0.342181 -0.0241858 0.473151 0.216197 0.275307 -0.771988 0.195521 0.297868 -0.140722 -0.293772 0.0047354 0.381138 0.0105677 -0.578041 -0.563443 -0.032866 -0.181866 0.178834 -0.0154207 -0.417677 -0.596206 0.575628 0.494519
internal_count=376510 229007 147503 89989 98582 130425 77680 53926 72649 36981 57514 68398 63954 25933 62027 16945 48731 38571 12309 29246 19149 18760 22325 34078 31273 43267 28677 41629 10788 8647 30841 14631 22377 8783 8426 16642 4444 23754 19855 3403 10295 10395 7566 17832 13081 18044 22926
shrinkage=1


Tree=1
num_leaves=48
num_cat=0
split_feature=6 6 6 6 6 6 6 3 6 6 6 1 1 6 5 0 3 0 1 6 5 5 1 5 1 5 6 4 4 5 4 0 3 0 5 4 5 5 3 5 6 4 0 2 1 6 0
split_gain=28272.2 5668.71 3314.91 1112.71 868.299 751.723 364.517 393.753 271.877 133.199 126.507 101.204 101.021 94.4512 90.7177 86.3165 77.346 76.6372 70.4624 61.081 60.2934 57.0685 50.1029 46.2059 45.9557 45.198 43.6057 42.2812 36.7026 36.4438 36.0137 29.494 26.1451 25.4869 24.3943 22.2573 21.9373 19.248 19.0046 18.741 18.5768 18.1481 22.3529 17.6266 17.5014 17.3168 17.2913
threshold=1.1413565442774771 1.7074042582870936 0.9042414945071402 0.46119046009272396 2.3931735328025368 1.4187878066219861 0.63242031710708069 37.781185500000007 2.0563507913113179 0.76140084824563925 0.96203434588861036 -122.41456649999999 -122.39083549999999 2.8121827892971121 8.4017372131347674 37.781185500000007 37.78437450000002 37.791857500000013 -122.41456649999999 0.35411322130818579 10.594522476196293 12.895608901977541 -122.39878799999998 4.3047842979431161 -122.41456649999999 3.0484768152236943 1.4121979900555532 -122.3945385 -122.41456649999999 6.4191472530364999 -122.3945385 37.802361500000011 37.789690500000006 37.780782500000008 17.083589553833011 -122.40186549999999 8.4017372131347674 3.3579128980636601 37.786641500000009 8.4017372131347674 1.8000585330157184 -122.38915049999999 37.789300000000004 11.516869544982912 -122.39666100000001 1.311189697252207 37.776618000000006
decision_type=2 2 2 2 2 2 2 2 2 2 2 2 2 2 2 2 2 2 2 2 2 2 2 2 2 2 2 2 2 2 2 2 2 2 2 2 2 2 2 2 2 2 2 2 2 2 2
left_child=2 5 3 19 8 14 36 15 18 43 33 35 17 -6 26 46 -12 28 -3 -1 32 -11 34 31 -10 -14 -2 -26 -13 -19 39 -20 38 -4 -16 -7 41 -34 -18 -21 -25 42 -5 -9 -17 -24 -8
right_child=1 4 10 6 13 11 7 9 24 21 16 12 25 -15 22 44 20 29 23 30 -22 -23 45 40 27 -27 -28 -29 -30 -31 -32 -33 37 -35 -36 -37 -38 -39 -40 -41 -42 -43 -44 -45 -46 -47 -48
leaf_value=-0.084887876866410555 -0.0010420702102647713 0.019883791786056849 -0.043610106904611111 -0.057011801483990855 0.051806529012172788 -0.002240295566256335 -0.052568951842548832 -0.036014351065504463 0.032528109943156532 -0.027828130636571347 -0.018282083536763284 0.010853347711497595 0.0038681890984269282 0.064924080227510547 -0.0013878659158508104 -0.023145996128799036 -0.0098718184674636694 0.0089149015891220214 0.028911482518701254 -0.070466720800337945 -0.0019541892085476846 -0.012322208667674911 0.0036339136675748486 0.029889984344993476 0.044506740459742934 0.019902894773264717 -0.011058997999314448 0.034917044581355451 0.021458513602886767 0.020803676252104865 -0.080120792650307221 0.015046149403318344 -0.012691170316992271 -0.024749475185005608 0.016385620333129802 0.016644562353042406 -0.045440838977232056 -0.0045022401597863615 -0.019209631240600749 -0.059517248186244556 0.038172024498560164 -0.071218518760762572 -0.05004415175954411 -0.043860710900295224 -0.040002246760712075 0.013149097837273402 -0.065790436535439561
leaf_count=3662 38366 7298 787 7813 18044 3693 12003 14249 5401 16373 19485 3585 7925 7889 7566 769 3133 10385 17139 3492 6869 2776 2534 3982 22926 2259 4901 5751 36370 3430 2325 1685 7388 7996 860 751 4173 4694 7162 2830 8467 557 11211 3583 3095 7800 1078
internal_value=0 0.219922 -0.341441 -0.461288 0.400889 0.0831373 -0.417024 -0.371559 0.344816 -0.313717 -0.153923 0.155434 0.165574 0.55797 0.00341498 -0.497795 -0.134012 0.18287 0.287315 -0.740632 -0.101493 -0.255803 0.0614938 0.307962 0.409899 0.0742498 -0.0217672 0.425836 0.20507 0.118667 -0.694789 0.276703 -0.12665 -0.264395 0.00426186 0.00951092 -0.520237 -0.0950967 -0.163679 -0.655653 0.355229 -0.534266 -0.529057 -0.375909 -0.366476 0.108159 -0.536585
internal_count=376510 229007 147503 89989 98582 130425 77680 53926 72649 36981 57514 68398 63954 25933 62027 16945 48731 53770 38571 12309 29246 19149 18760 31273 34078 10184 43267 28677 39955 13815 8647 18824 22377 8783 8426 4444 23754 12082 10295 6322 12449 19581 19024 17832 3864 10334 13081
shrinkage=0.1


Tree=2
num_leaves=48
num_cat=0
split_feature=6 6 6 6 6 6 6 3 6 6 6 6 1 4 5 0 3 1 6 5 5 1 0 4 0 3 6 6 6 1 5 4 3 6 1 3 2 3 0 2 5 6 6 4 1 3 5
split_gain=22900.5 4591.66 2685.08 901.292 706.336 608.896 295.259 318.94 172.864 108.301 107.891 102.471 81.975 87.0629 73.4813 69.9164 62.6503 57.0746 49.4756 48.8377 47.9426 42.599 42.3684 38.4838 38.1147 55.5603 36.0699 34.4729 33.527 32.9969 42.0186 29.1711 25.516 24.8435 22.9533 22.2857 22.0563 21.1775 20.6444 19.8162 24.1472 18.7219 18.5462 16.3617 16.2324 16.0421 15.5909
threshold=1.1413565442774771 1.7074042582870936 0.9042414945071402 0.46119046009272396 2.3090105703796704 1.4187878066219861 0.63242031710708069 37.781185500000007 2.0563507913113179 2.8121827892971121 0.76140084824563925 0.96203434588861036 -122.41456649999999 -122.3945385 8.4017372131347674 37.781185500000007 37.78437450000002 -122.41456649999999 0.35411322130818579 10.594522476196293 13.692461013793947 -122.39046249999997 37.775707000000004 -122.39666100000001 37.779588000000011 37.790801000000009 1.3943768775006988 1.2824788592189644 2.5716409011053334 -122.41456649999999 2.6283768415451054 -122.3945385 37.782005500000004 1.6090248037977235 -122.40307849999998 37.802361500000011 6.4191472530364999 37.789690500000006 37.780782500000008 13.692461013793947 6.8346450328826913 1.5777808280331136 1.5322739289948772 -122.4008365 -122.39536499999998 37.789300000000004 3.3579128980636601
decision_type=2 2 2 2 2 2 2 2 2 2 2 2 2 2 2 2 2 2 2 2 2 2 2 2 2 2 2 2 2 2 2 2 2 2 2 2 2 2 2 2 2 2 2 2 2 2 2
left_child=2 5 3 18 8 14 39 15 17 28 43 38 41 24 26 44 -13 -3 -1 37 -12 32 -16 35 25 -14 36 -24 -6 -10 -31 -20 -15 -26 -25 -19 -2 45 -4 40 -5 42 -7 -9 -8 -18 -39
right_child=1 4 11 6 9 12 7 10 29 -11 20 16 13 21 22 -17 19 23 31 -21 -22 -23 27 34 33 -27 -28 -29 -30 30 -32 -33 -34 -35 -36 -37 -38 46 -40 -41 -42 -43 -44 -45 -46 -47 -48
leaf_value=-0.076399089456146568 -0.0029407435992635459 0.017895412876924061 -0.039249096833538909 -0.047722325203546606 0.041608158647634279 0.0051631572560583774 -0.049612398782182231 -0.028018815601217668 0.028879829953400299 0.058431672981928057 -0.024661961853948217 -0.016453875072896109 0.020239574004601687 0.0079384256450890246 -0.0061726263045426668 -0.032982814928333146 -0.011291571503488211 0.032335498204890165 -0.059008736224493041 -0.0017587703338863602 -0.0077534487357421543 0.0019072300847647141 0.00047438710971782114 0.018173354646844216 0.013890924784151756 0.043485363370954967 -0.0077346791107127172 0.010525979104327798 0.049091579546263302 0.029204565187323374 0.03994899408391886 -0.072108712663848995 0.015702285100060654 0.020002785703859924 0.026679263518702562 0.020934842598903061 0.0021117570027454984 -0.011422053248589914 -0.0222745269563508 -0.053339141451748118 -0.039964940190998666 0.012591254219634676 -0.0096351528855748141 -0.035410270867242855 -0.038889850852837478 -0.019261473944224547 -0.0040520159088485467
leaf_count=3662 18001 7298 787 14273 13438 1587 11471 3808 5052 7889 17292 19485 9637 7602 2654 3864 5852 14701 6322 6869 1857 5171 4907 4651 21137 1151 8651 11199 10797 4544 18291 2325 9552 9704 9980 1941 16615 7388 7996 3899 5582 1041 1816 14024 1610 4443 4694
internal_value=0 0.197929 -0.307297 -0.415159 0.3608 0.0748236 -0.375322 -0.334403 0.30195 0.482549 -0.282346 -0.13853 0.13989 0.149016 0.00307349 -0.448015 -0.120611 0.258584 -0.666569 -0.0913439 -0.230222 0.0986331 0.0553444 0.277166 0.176036 0.227197 -0.0195905 0.0746357 0.449421 0.36193 0.378109 -0.62531 0.122616 0.15814 0.239753 0.310058 -0.00515643 -0.113985 -0.237955 -0.468214 -0.455414 0.00855983 -0.0273391 -0.338318 -0.482927 -0.147311 -0.0855871
internal_count=376510 229007 147503 89989 98582 130425 77680 53926 66458 32124 36981 57514 68398 63954 62027 16945 48731 38571 12309 29246 19149 22325 18760 31273 41629 10788 43267 16106 24235 27887 22835 8647 17154 30841 14631 16642 34616 22377 8783 23754 19855 4444 3403 17832 13081 10295 12082
shrinkage=0.1


Tree=3
num_leaves=48
num_cat=0
split_feature=6 6 6 6 6 6 6 3 6 6 6 1 4 6 5 0 3 1 6 5 5 1 1 0 5 1 1 1 4 6 4 3 0 3 5 4 3 4 2 2 1 3 1 1 3 6 6
split_gain=18549.4 3719.24 2174.92 730.047 573.06 493.206 239.16 258.341 177.353 87.392 83.0015 66.3997 70.521 62.8707 59.5199 56.6323 50.7467 46.2304 40.0752 39.5585 39.036 35.3996 34.5052 31.6269 31.5293 31.4753 38.0268 30.2758 28.4986 27.4678 26.5752 22.6522 20.9457 20.6679 18.2425 18.1936 17.1538 16.845 18.4759 18.9758 16.722 16.1429 15.597 15.4584 16.0768 15.3651 15.1647
threshold=1.1413565442774771 1.7074042582870936 0.9042414945071402 0.46119046009272396 2.3931735328025368 1.4187878066219861 0.63242031710708069 37.781185500000007 2.0563507913113179 0.76140084824563925 0.96203434588861036 -122.41456649999999 -122.3945385 2.931138424488148 8.4017372131347674 37.781185500000007 37.78437450000002 -122.41456649999999 0.35411322130818579 10.594522476196293 12.895608901977541 -122.39878799999998 -122.39046249999997 37.789690500000006 4.3047842979431161 -122.40307849999998 -122.39188599999999 -122.41456649999999 -122.3945385 1.5378374329595483 -122.4008365 37.793195000000004 37.802361500000011 37.782005500000004 17.083589553833011 -122.40281999999998 37.789690500000006 -122.38915049999999 13.692461013793947 2.5248224735260014 -122.41877849999999 37.794185000000006 -122.3945385 -122.39666100000001 37.783065000000015 1.8000585330157184 1.5777808280331136
decision_type=2 2 2 2 2 2 2 2 2 2 2 2 2 2 2 2 2 2 2 2 2 2 2 2 2 2 2 2 2 2 2 2 2 2 2 2 2 2 2 2 2 2 2 2 2 2 2
left_child=2 5 3 18 8 14 37 15 17 -9 40 46 25 35 23 -8 43 -3 -1 36 -11 34 33 31 32 29 -27 -10 42 -13 -20 -2 -19 -14 -16 -6 -18 38 39 -5 -4 -25 -29 -12 -45 -26 -7
right_child=1 4 10 6 13 11 7 9 27 20 16 12 22 -15 21 -17 19 24 30 -21 -22 -23 -24 41 45 26 -28 28 -30 -31 -32 -33 -34 -35 -36 -37 -38 -39 -40 -41 -42 -43 -44 44 -46 -47 -48
leaf_value=-0.068759180250085705 -0.00094145088838031965 0.016105871666797191 -0.035324186744778434 -0.048700390796743181 0.047209058042178231 -0.0024605217472462547 -0.043463407512518766 -0.030448651278402929 0.026305068189548021 -0.022579121714441833 -0.01716525591334005 0.0059113568752956255 0.0071445827613713436 0.054810834929327805 -0.0013984072271426683 -0.029684534075702908 -0.013258018855345534 0.023408720301752145 -0.048493963773746145 -0.0015828931009256109 -0.0097548832963485817 0.0089034630239721996 0.0017165071233796727 -0.0090134558508119297 0.023726531325201018 0.019276467384918301 0.011694545984845078 0.037572148295109374 0.028172621523516701 0.017870258580574113 -0.060226242665635837 0.0069944917156083142 0.011724198818039593 0.014132056597867225 0.013971463074558417 0.040733967737488719 -0.007702835622118813 -0.059324435204187245 -0.048005228213166662 -0.039265030217385748 -0.020047074675543175 -0.0025581995655020928 0.03158889367854293 -0.012403852713336517 0.0093931417823289037 0.031258700684631512 0.011332128770040181
leaf_count=3662 23191 7298 787 2440 6234 3403 13081 17832 5401 16373 11461 5216 7602 5421 7566 3864 10295 17139 2910 6869 2776 10334 5171 6779 3982 24281 9092 17077 5751 3040 5737 4257 1685 9552 860 14278 12082 557 3899 16858 7996 9040 5849 7670 354 8467 1041
internal_value=0 0.178136 -0.276567 -0.373643 0.32472 0.0673412 -0.337789 -0.300963 0.279167 -0.254111 -0.124677 0.125901 0.134115 0.452331 0.00276614 -0.403214 -0.10855 0.232725 -0.599912 -0.0822095 -0.2072 0.04981 0.0887698 -0.0176314 0.24945 0.158432 0.172109 0.331732 0.344668 0.103148 -0.562779 0.0028936 0.223628 0.110355 0.00170319 0.427019 -0.102586 -0.421392 -0.417266 -0.40458 -0.21416 -0.053245 0.360457 -0.148085 -0.114422 0.288494 0.00770385
internal_count=376510 229007 147503 89989 98582 130425 77680 53926 72649 36981 57514 68398 63954 25933 62027 16945 48731 38571 12309 29246 19149 18760 22325 43267 31273 41629 33373 34078 28677 8256 8647 27448 18824 17154 8426 20512 22377 23754 23197 19298 8783 15819 22926 19485 8024 12449 4444
shrinkage=0.1


Tree=4
num_leaves=48
num_cat=0
split_feature=6 6 6 6 6 6 6 0 6 6 6 6 1 1 5 0 3 3 1 6 5 0 5 5 5 5 6 6 4 0 1 5 6 4 5 6 4 5 6 5 0 5 5 4 6 5 1
split_gain=15025 3012.59 1761.68 591.338 465.847 399.496 193.719 209.533 108.248 88.3232 80.4673 67.2312 53.7838 57.3912 48.2111 47.5881 42.2562 41.1048 37.829 32.4609 32.0424 30.2885 29.7468 29.47 29.3825 28.5339 27.1116 26.5399 25.9893 25.9327 23.3614 25.4562 22.5245 22.4342 22.1637 17.7874 16.6058 19.0607 17.7574 16.5021 15.7389 15.5486 14.6674 14.4595 15.6869 14.2904 13.7452
threshold=1.1413565442774771 1.7074042582870936 0.9042414945071402 0.46119046009272396 2.2998118440789423 1.4187878066219861 0.63242031710708069 37.781185500000007 2.0563507913113179 0.77494807708018898 2.6302256210820629 0.96203434588861036 -122.41456649999999 -122.39083549999999 8.4017372131347674 37.791857500000013 37.781185500000007 37.78437450000002 -122.40307849999998 0.35411322130818579 10.594522476196293 37.775707000000004 20.237852096557621 3.0484768152236943 13.692461013793947 11.516869544982912 1.4097187912419205 1.2185198766868368 -122.41456649999999 37.789300000000004 -122.41877849999999 2.6283768415451054 2.931138424488148 -122.39347049999999 6.4191472530364999 1.8701087156926841 -122.4008365 6.8346450328826913 1.0513414492750235 2.6283768415451054 37.777634500000005 4.3047842979431161 8.4017372131347674 -122.39495149999998 0.31959382700528699 8.4017372131347674 -122.41456649999999
decision_type=2 2 2 2 2 2 2 2 2 2 2 2 2 2 2 2 2 2 2 2 2 2 2 2 2 2 2 2 2 2 2 2 2 2 2 2 2 2 2 2 2 2 2 2 2 2 2
left_child=2 5 3 19 8 14 42 16 18 24 41 -4 -7 15 26 28 46 -13 22 43 36 -16 35 -15 -9 -11 -2 -23 -14 39 -10 -32 40 45 -17 -3 38 -38 -19 -20 -12 -6 -5 44 -1 -21 -8
right_child=1 4 11 6 10 12 7 9 30 25 32 17 13 23 21 34 -18 20 29 33 -22 27 -24 -25 -26 -27 -28 -29 -30 -31 31 -33 -34 -35 -36 -37 37 -39 -40 -41 -42 -43 -44 -45 -46 -47 -48
leaf_value=-0.062110123313612209 -0.00056788509586168845 0.013415827057247401 -0.019274381293761668 -0.03907242878482739 0.03204236541276613 0.00069334607074135902 -0.055227199555438727 -0.028381048524378828 0.020205182519960965 -0.019836883960688844 0.035760501934607856 -0.013327638804570037 0.0069999215233659583 0.0023149347397354095 -0.0054155230534788622 0.0060128133635587167 -0.025681338687305585 -0.010131243805934506 0.021207318671065102 -0.051895784297177651 -0.0014246038338281651 -0.0013611008156586097 0.044329599802606284 0.01526261005352887 -0.014059178650631464 -0.0099274919272441253 -0.0077364522939059521 0.0083184163607565795 0.015924059932442287 0.020213508496322686 0.023416217822546381 0.031714925260393163 0.049329752588711286 -0.061042017682941999 0.01528423621607897 0.020185548726029526 -0.0083353590687204344 -0.015357240412140606 0.0016196119769159379 0.029537743689140635 0.044115399496721247 0.038298031836157487 -0.032542583573579018 -0.07056975808521683 -0.043664798201391193 -0.042676372304978345 -0.038464818941318146
leaf_count=1782 37117 8404 8783 19581 11320 4444 509 19670 2606 13040 3370 19485 3585 7925 2654 10385 2851 2568 3423 4142 6869 3668 395 2259 1545 3739 6150 12438 36370 11348 4544 19815 5421 1675 3430 7212 11378 5855 2576 7789 6813 6122 4173 1258 622 2830 12572
internal_value=0 0.160323 -0.248911 -0.336279 0.292248 0.0606071 -0.304011 -0.270867 0.243434 -0.230502 0.389054 -0.11221 0.113311 0.120703 0.00248952 0.13374 -0.367128 -0.0976947 0.209453 -0.539921 -0.0739885 0.044829 0.172278 0.0518697 -0.27338 -0.176287 -0.0158683 0.0611399 0.151233 0.235836 0.292041 0.301669 0.441225 -0.506502 0.0831473 0.165423 -0.0923275 -0.107211 -0.0424668 0.269945 0.413504 0.342381 -0.379253 -0.618833 -0.573377 -0.481535 -0.391171
internal_count=376510 229007 147503 89989 98582 130425 77680 53926 65536 37994 33046 57514 68398 63954 62027 53770 15932 48731 38571 12309 29246 18760 16011 10184 21215 16779 43267 16106 39955 22560 26965 24359 15604 8647 13815 15616 22377 17233 5144 11212 10183 17442 23754 3662 2404 6972 13081
shrinkage=0.1


Tree=5
num_leaves=48
num_cat=0
split_feature=6 6 6 6 6 6 0 6 6 6 6 6 2 6 1 4 3 5 1 3 5 6 6 5 1 0 0 4 1 0 0 6 1 3 1 6 0 6 0 2 5 3 0 1 3 2 0
split_gain=12170.3 2440.19 1426.96 484.502 378.161 323.592 143.513 158.585 90.9459 73.6596 61.4329 54.4573 44.2515 46.2386 43.5649 49.3464 39.9334 39.051 34.9388 33.2949 29.878 28.0072 87.7954 26.3398 25.2653 24.2182 23.7324 22.4552 22.303 20.4343 19.7765 19.4957 19.3325 18.1504 17.9586 16.6162 25.0762 15.634 15.4852 14.3138 13.8809 13.7835 13.5448 13.5278 13.0155 16.5527 12.9601
threshold=1.1413565442774771 1.7074042582870936 0.9042414945071402 0.51988461665863006 2.3090105703796704 1.4187878066219861 37.781542000000009 0.76140084824563925 2.0563507913113179 0.42216645006698611 2.6302256210820629 0.96203434588861036 13.692461013793947 0.55966765656870132 -122.41456649999999 -122.3945385 37.781542000000009 8.4017372131347674 -122.41456649999999 37.78437450000002 11.516869544982912 1.6090248037977235 1.6777804875216178 13.692461013793947 -122.39878799999998 37.798531500000003 37.789690500000006 -122.39666100000001 -122.39046249999997 37.790029000000004 37.781542000000009 3.3462207453964301 -122.39848049999999 37.793195000000004 -122.39495149999998 1.0906073419010083 37.797901000000003 0.75074036049911019 37.798531500000003 2.5634586811065678 17.083589553833011 37.775707000000004 37.780782500000008 -122.40307849999998 37.790029000000004 3.0484768152236943 37.777634500000005
decision_type=2 2 2 2 2 2 2 2 2 2 2 2 2 2 2 2 2 2 2 2 2 2 2 2 2 2 2 2 2 2 2 2 2 2 2 2 2 2 2 2 2 2 2 2 2 2 2
left_child=2 5 3 9 8 17 16 12 18 32 -6 42 13 -8 -7 21 41 26 -3 -13 25 29 -23 35 40 -9 33 34 39 -16 -10 46 38 -2 -20 -21 -37 -14 -1 -17 -19 -5 -4 -29 -34 -46 -12
right_child=1 4 11 6 10 14 7 20 30 -11 31 19 37 -15 15 28 -18 24 27 23 -22 22 -24 -25 -26 -27 -28 43 -30 -31 -32 -33 44 -35 -36 36 -38 -39 -40 -41 -42 -43 -44 -45 45 -47 -48
leaf_value=-0.043853964495574382 -0.00075190956111239032 0.012620476959929034 -0.029864329761048022 -0.031726652259313148 0.03096058047001183 0.0006240115403053398 -0.034116125377559807 -0.01722831214269192 0.023892869487946167 -0.039153026253333167 0.035205490217873996 -0.011994875097464159 -0.037890649815747003 -0.024136661670151736 0.012569789773600199 0.0025875575411189286 -0.022894005830726132 -0.0013979411328999163 0.024904928230181599 -0.0098214293214408926 -0.0086640210405392031 0.028660867925849844 0.010336690786194402 -0.00022430557262767374 0.007348376513827479 -0.03056429128209507 -0.0045131709773314471 0.012992624070568733 0.0013133630784991411 0.0059304477491959225 0.029236707676544606 0.056244060757386985 -0.061560560727776138 0.0063518311163492146 0.017648382402641327 0.00082786729630671347 -0.010921035934261282 -0.017949646366179423 -0.062146600000525978 0.010147493806641471 0.012009224873357642 -0.037616101990712886 -0.016114929152130735 0.019522604951349509 -0.056686624630207294 -0.037450331461471593 0.041271211925208023
leaf_count=3132 23191 7298 787 6187 16520 4444 5986 13953 15081 10339 5699 19485 4962 20693 24750 3045 2935 7566 11854 16575 3830 4173 7002 5225 10334 1509 15819 4651 5171 5704 12806 682 2307 4257 4788 4301 3145 427 543 14109 860 11109 7996 9980 1425 652 9223
internal_value=0 0.144291 -0.224019 -0.302651 0.263023 0.0545464 -0.265454 -0.237354 0.219962 -0.447394 0.352107 -0.100989 -0.280453 -0.263758 0.10198 0.108633 -0.336792 0.00224057 0.188507 -0.0879252 -0.165712 0.128975 0.171794 -0.0665897 0.0403461 -0.185298 -0.0142815 0.203047 0.0707017 0.113262 0.263468 0.397103 -0.519063 0.00349833 0.228172 -0.0805862 -0.0413457 -0.363106 -0.465568 0.0880553 -0.000295382 -0.355094 -0.173469 0.174468 -0.563906 -0.506481 0.389546
internal_count=376510 229007 147503 89989 98582 130425 71591 51360 66458 18398 32124 57514 32068 26679 68398 63954 20231 62027 38571 48731 19292 41629 11175 29246 18760 15462 43267 31273 22325 30454 27887 15604 8059 27448 16642 24021 7446 5389 3675 17154 8426 17296 8783 14631 4384 2077 14922
shrinkage=0.1


Tree=6
num_leaves=48
num_cat=0
split_feature=6 6 6 6 6 6 6 3 6 6 1 6 6 6 1 1 4 2 5 0 3 5 6 4 6 4 1 0 6 6 4 1 4 0 6 3 5 6 5 4 4 1 2 4 2 1 2
split_gain=9857.92 1985.2 1155.84 393.121 374.526 216.723 127.984 141.292 52.7026 58.5192 52.2464 47.1064 46.2147 44.1104 37.1337 35.9789 33.3646 32.7098 31.6313 28.7546 26.9689 25.0843 23.7461 23.4821 22.5757 21.8599 21.7206 21.6327 21.4049 20.8489 20.654 20.2013 17.6641 16.7793 15.7536 14.458 14.4128 14.1514 13.9787 13.7742 13.4389 13.3858 13.205 17.411 12.933 12.5213 13.4933
threshold=1.1413565442774771 1.8701087156926841 0.9042414945071402 0.46119046009272396 1.4187878066219861 2.5560707560850422 0.63242031710708069 37.781185500000007 1.6090248037977235 1.6777804875216178 -122.41456649999999 0.76140084824563925 1.698335128760357 0.96203434588861036 -122.41456649999999 -122.39951049999998 -122.395853 26.160266876220703 8.4017372131347674 37.781185500000007 37.78437450000002 13.692461013793947 1.4815628154374507 -122.4008365 2.931138424488148 -122.4008365 -122.40281999999998 37.775707000000004 1.3943768775006988 1.2824788592189644 -122.39347049999999 -122.39046249999997 -122.40039049999999 37.780782500000008 1.0513414492750235 37.791382000000013 17.083589553833011 0.35411322130818579 4.3047842979431161 -122.39495149999998 -122.38915049999999 -122.41780999999999 8.4017372131347674 -122.39951049999998 6.4191472530364999 -122.39666100000001 2.9127869606018071
decision_type=2 2 2 2 2 2 2 2 2 2 2 2 2 2 2 2 2 2 2 2 2 2 2 2 2 2 2 2 2 2 2 2 2 2 2 2 2 2 2 2 2 2 2 2 2 2 2
left_child=2 4 3 23 18 10 40 19 14 17 30 39 31 -4 41 -12 -17 35 28 -8 45 -13 33 -1 38 34 -14 -20 44 -29 -3 -11 -27 -16 -22 -10 -24 -25 -7 -9 42 -6 43 -5 -2 -15 -47
right_child=1 5 13 6 8 24 7 11 9 12 15 21 26 20 22 16 -18 -19 27 -21 25 -23 36 37 -26 32 -28 29 -30 -31 -32 -33 -34 -35 -36 -37 -38 -39 -40 -41 -42 -43 -44 -45 -46 46 -48
leaf_value=-0.037579989822092055 -0.0020304191173606445 0.015788605943121228 -0.015612248788696782 -0.024417965319890263 0.0069631507040220798 0.030673901495104523 -0.03171433771730392 -0.01973482845573285 0.029546273167734047 0.0093712111120648339 0.028196519957312628 -0.016190677790547121 0.010692515402244833 -0.012916478883757465 0.017231126561189976 0.02521439752553822 0.018897810605980583 0.0081449776968380034 -0.0047341764717757908 -0.021896057874364563 -0.0068440933542171017 -0.0039601391292436432 0.0069264841929473275 -0.053096656576508972 0.040341885918486468 -0.013452405604647465 0.017191401488305193 -0.0004257590368231564 -0.0057345479935845441 0.0073911969362524133 0.032867176493996793 0.00095224150365751353 -0.0062839516155980468 0.0098120528224741096 0.0013577584917295014 0.016475879884484314 0.023959647058646186 -0.044135985692949374 0.037621215291205767 -0.025349215261743191 -0.046073136522344363 -0.0053819711896296437 -0.034375561607005702 -0.031183763376135105 0.0018385000196379524 -0.013005318214786749 -0.0045562988597646495
leaf_count=4028 18001 11402 8783 5692 1321 9773 13081 10170 3389 10464 15291 17292 8936 11461 4626 18434 15305 1275 2654 3864 4037 1857 27246 2544 5421 4443 12115 4907 8651 11199 755 3917 15189 8939 5577 1128 506 5737 4116 7662 557 2621 6041 11464 16615 3048 4976
internal_value=0 0.129861 -0.201618 -0.272386 0.0613143 0.256325 -0.246076 -0.219136 0.103844 0.129709 0.227176 -0.184487 0.114476 -0.0908898 0.0802837 0.241727 0.22349 0.222897 0.00201652 -0.294755 -0.0791327 -0.150046 0.0891313 -0.438426 0.348689 -0.0599307 0.144327 0.0363115 -0.0128533 0.0500961 0.168493 0.0707811 -0.0790627 0.123421 -0.0208627 0.262823 0.0723705 -0.468888 0.327327 -0.221472 -0.307234 -0.0124501 -0.303548 -0.28939 -0.00173414 -0.107954 -0.0776575
internal_count=376510 229007 147503 89989 148510 80497 77680 53926 86483 41224 61187 36981 35432 57514 45259 49030 33739 5792 62027 16945 48731 19149 41317 12309 19310 29246 21051 18760 43267 16106 12157 14381 19632 13565 9614 4517 27752 8281 13889 17832 23754 3942 23197 17156 34616 19485 8024
shrinkage=0.1


Tree=7
num_leaves=48
num_cat=0
split_feature=6 6 6 6 6 6 0 6 6 6 6 6 6 6 2 6 4 1 0 3 5 1 5 6 5 0 6 6 1 3 6 3 0 0 2 6 5 1 5 3 0 5 2 6 1 5 6
split_gain=7984.91 1608.01 936.23 322.562 303.366 175.546 95.5223 104.371 49.9574 44.4575 42.6891 47.4006 39.0001 35.7294 34.2878 32.8221 31.3605 30.0783 28.0068 27.3406 26.2987 24.0208 23.5415 23.178 21.6058 19.6785 19.2343 18.2863 17.7997 17.7526 28.768 17.6276 17.3563 14.486 13.5112 15.8455 12.9402 12.4168 12.3838 12.3504 12.3367 11.9801 11.8795 11.8467 11.8188 11.3242 17.7275
threshold=1.1413565442774771 1.8701087156926841 0.9042414945071402 0.51988461665863006 1.4187878066219861 2.5560707560850422 37.781542000000009 0.76140084824563925 0.42216645006698611 2.0563507913113179 1.6090248037977235 1.6777804875216178 1.7030435640147428 0.96203434588861036 13.692461013793947 0.55966765656870132 -122.4008365 -122.41456649999999 37.791382000000013 37.781185500000007 17.083589553833011 -122.40281999999998 13.692461013793947 1.4121979900555532 11.516869544982912 37.798531500000003 1.4815628154374507 2.931138424488148 -122.39046249999997 37.783065000000015 1.311189697252207 37.789690500000006 37.795408500000008 37.791857500000013 3.0698237419128422 0.31959382700528699 2.5248224735260014 -122.3945385 2.6283768415451054 37.775707000000004 37.802361500000011 3.01521909236908 13.692461013793947 0.75074036049911019 -122.41877849999999 3.3579128980636601 1.0437837742424578
decision_type=2 2 2 2 2 2 2 2 2 2 2 2 2 2 2 2 2 2 2 2 2 2 2 2 2 2 2 2 2 2 2 2 2 2 2 2 2 2 2 2 2 2 2 2 2 2 2
left_child=2 4 3 8 20 9 19 14 34 16 17 18 28 -4 15 -8 40 -6 36 39 23 -14 31 29 25 -9 33 38 -13 -2 -31 -15 44 -19 -1 -36 -12 -28 -7 -5 -3 -29 -37 -16 -11 -33 -47
right_child=1 5 13 6 10 27 7 24 -10 32 11 12 21 22 43 -17 -18 26 -20 -21 -22 -23 -24 -25 -26 -27 37 41 -30 30 -32 45 -34 -35 35 42 -38 -39 -40 -41 -42 -43 -44 -45 -46 46 -48
leaf_value=-0.047651749657723598 -0.0017800182383721755 0.021589307422533708 -0.01405102413127066 -0.025410642398294988 -0.0011205077791159013 0.024520699641805203 -0.027735398017983845 -0.013867522249964735 -0.031724290297477753 0.015517022597087574 0.0086820896335594571 0.0085789703160329012 0.0096232637754809433 -0.009362713776445571 -0.031334532696502541 -0.019327486517197609 0.013930926211686526 0.012666570182452513 0.010326434844210076 -0.019167929592143071 0.013142385026387038 0.01675243471107541 -0.0017033102058108642 -0.0067381566771049037 -0.0066511161464504935 -0.025888794664151733 0.0079224137138481955 0.033306086622511839 0.0008570176298607745 -0.00088308303727599599 0.0049711621059043039 -0.0074131636574535364 0.02705767222538313 0.0042564650181662949 -0.047468602832512127 -0.03731884168401018 0.027092403002212068 0.0033380628512641383 0.031264821973450228 -0.031032123716829719 0.048956936069890947 0.043670248481783136 -0.017714287442087442 -0.01397608311989168 0.022034661434437386 -0.010751797635043549 0.0022582788054454459
leaf_count=2925 21913 6491 8783 6187 3942 3718 5986 13953 10339 3056 430 12547 8936 29219 4962 20693 13826 11051 1957 3433 1527 10032 6885 4901 3830 1509 19222 3851 3917 17806 15880 7388 6587 2514 1580 3212 3405 8530 10171 10611 169 1570 342 427 31058 1447 3792
internal_value=0 0.116875 -0.181456 -0.245147 0.0551828 0.230693 -0.214797 -0.191871 -0.363249 0.204459 0.0934592 0.116739 0.103029 -0.0818009 -0.226836 -0.21214 0.166464 0.0722553 0.200607 -0.272997 0.00181486 0.133938 -0.0712194 -0.00145642 -0.133752 -0.150407 0.0802182 0.31382 0.0674182 0.00435482 0.0187668 -0.0801348 0.223582 0.111079 -0.422271 -0.391365 0.250281 0.0651334 0.294595 -0.289616 0.222838 0.363077 -0.354323 -0.299591 0.214508 -0.0489134 -0.0133508
internal_count=376510 229007 147503 89989 148510 80497 71591 51360 18398 61187 86483 41224 35432 57514 32068 26679 20486 45259 5792 20231 62027 18968 48731 60500 19292 15462 41317 19310 16464 55599 33686 41846 40701 13565 8059 5134 3835 27752 13889 16798 6660 5421 3554 5389 34114 12627 5239
shrinkage=0.1


Tree=8
num_leaves=48
num_cat=0
split_feature=6 6 6 6 6 6 0 6 6 1 5 0 0 6 2 4 1 4 6 4 3 2 5 3 3 4 5 5 5 0 5 1 1 1 6 0 0 1 3 0 0 0 3 6 6 5 6
split_gain=6467.78 1302.49 758.346 261.275 245.727 142.856 77.3731 84.5401 40.4655 36.469 36.406 34.7207 45.851 28.9408 27.7731 31.0861 25.86 25.6354 23.4752 22.5767 22.1889 21.9758 19.4112 19.2516 18.4169 18.2026 17.5007 16.999 16.0073 15.9396 14.8076 12.9094 11.5335 11.4901 13.8252 10.9713 10.9057 10.6335 12.5803 10.4085 10.4082 10.7467 10.2853 9.70621 9.59585 9.49918 9.46637
threshold=1.1413565442774771 1.8701087156926841 0.9042414945071402 0.51988461665863006 1.4187878066219861 2.3931735328025368 37.781542000000009 0.76140084824563925 0.42216645006698611 -122.41456649999999 17.083589553833011 37.776618000000006 37.780782500000008 0.96203434588861036 13.692461013793947 -122.40307849999998 -122.39951049999998 -122.39046249999997 2.8121827892971121 -122.395853 37.781542000000009 6.4191472530364999 16.107697486877449 37.78437450000002 37.791857500000013 -122.395853 11.516869544982912 8.4017372131347674 17.083589553833011 37.798531500000003 6.8346450328826913 -122.41456649999999 -122.39827199999998 -122.395853 0.40760513922329478 37.780782500000008 37.777634500000005 -122.39666100000001 37.783065000000015 37.799247000000008 37.798531500000003 37.78437450000002 37.793195000000004 0.90028351036391918 0.75074036049911019 2.5634586811065678 1.3943768775006988
decision_type=2 2 2 2 2 2 2 2 2 2 2 2 2 2 2 2 2 2 2 2 2 2 2 2 2 2 2 2 2 2 2 2 2 2 2 2 2 2 2 2 2 2 2 2 2 2 2
left_child=2 4 3 8 19 9 20 14 32 -3 11 17 36 35 15 -8 -11 24 -7 28 43 -21 -14 37 -6 -18 29 30 31 -9 -25 -2 40 42 -35 -4 -13 -15 -39 -28 41 -1 -34 -5 -16 -37 -23
right_child=1 5 13 6 10 18 7 26 -10 16 -12 12 22 23 44 -17 25 -19 -20 21 -22 46 -24 27 -26 -27 39 -29 -30 -31 -32 -33 33 34 -36 45 -38 38 -40 -41 -42 -43 -44 -45 -46 -47 -48
leaf_value=-0.040420113855841093 -0.007685800258122143 0.012658688397456264 -0.02391156927158318 -0.027482740769702751 0.011679832654159145 0.024883559467733758 -0.0096595119104525666 -0.012480769851764238 -0.028551861104121903 0.022904317953578626 0.018972997721584461 -0.0037387457104154694 0.0085615645170109989 -0.010799497997396228 -0.028201079178774447 -0.020327798644845897 0.019981667964743381 -0.0086899279488894168 0.031423202141309427 -0.0053176632536800442 -0.016530276172964164 0.0018027738465787738 -0.00051158094719978365 -0.0046911264859126186 0.024869691105157684 0.015123620804676448 -0.0071537596277135686 -0.0014432554845651739 0.011828146466564741 -0.023299915261025528 -0.010720230231373147 0.0017819346001894491 -0.049838831734527418 -0.029305349048119579 -0.044603350921247037 -0.01742260733593792 0.0031149166504941799 -0.006903557411444038 0.012377980467287882 0.017286140773231623 -0.047007674848983272 -0.028312818605708764 -0.017695096692670016 -0.022310519551805349 -0.012578475046302415 -0.0095186021030635865 -0.0043243501750461003
leaf_count=1067 1507 10816 787 12117 16757 18044 3089 13953 10339 12895 3145 3270 51114 11461 4962 23590 15548 589 7889 11565 2935 11744 2472 13389 1130 15305 3647 10002 1527 1509 5855 32473 1635 1148 1217 2042 8006 7670 354 183 543 2343 106 5179 427 5954 3211
internal_value=0 0.105188 -0.16331 -0.220633 0.0496646 0.207623 -0.193317 -0.172684 -0.326924 0.178581 0.0841133 0.0801275 0.0692337 -0.0736208 -0.204152 -0.190926 0.191436 0.118372 0.26873 0.00163338 -0.245698 -0.0204421 0.0814301 -0.0640975 0.125131 0.175718 -0.120376 -0.0478739 0.0181215 -0.135367 -0.0652549 0.0136204 -0.380044 -0.417163 -0.371775 -0.126459 0.0112738 -0.0884483 -0.060529 -0.05986 -0.341488 -0.321012 -0.478818 -0.25934 -0.269632 -0.115371 0.00487214
internal_count=376510 229007 147503 89989 148510 80497 71591 51360 18398 54564 86483 83338 64862 57514 32068 26679 43748 18476 25933 62027 20231 26520 53586 48731 17887 30853 19292 29246 35507 15462 19244 33980 8059 4106 2365 8783 11276 19485 8024 3830 3953 3410 1741 17296 5389 7996 14955
shrinkage=0.1


Tree=9
num_leaves=48
num_cat=0
split_feature=6 6 6 6 6 6 3 6 6 5 6 1 0 0 3 6 4 0 0 1 4 6 2 4 6 5 4 1 0 5 3 5 6 4 0 4 4 5 5 2 2 4 6 4 5 0 0
split_gain=5242.77 1230.4 471.158 183.108 168.968 154.74 89.1164 75.12 39.8442 34.9934 27.4108 26.4137 27.8975 25.8134 24.0992 24.2949 23.5621 23.1414 31.3506 20.8599 19.2159 18.887 18.5272 17.1742 15.9183 15.7171 15.6328 14.2417 15.702 13.8188 13.7521 13.6326 12.6937 12.229 14.7936 11.4379 11.3426 10.893 10.7617 10.7602 12.5903 11.2431 10.4002 10.1915 10.1154 9.67616 9.54102
threshold=1.0879604877246583 1.7074042582870936 0.63242031710708069 1.4187878066219861 2.2998118440789423 0.94643015045360446 37.781185500000007 0.46119046009272396 2.0563507913113179 20.237852096557621 2.6302256210820629 -122.41456649999999 37.797901000000003 37.797901000000003 37.781185500000007 1.311189697252207 -122.40618599999998 37.776618000000006 37.780782500000008 -122.41456649999999 -122.39046249999997 0.76140084824563925 3.3579128980636601 -122.41456649999999 2.2859712901229003 2.6283768415451054 -122.4008365 -122.39536499999998 37.785802000000011 3.01521909236908 37.799247000000008 11.516869544982912 3.3462207453964301 -122.395853 37.783065000000015 -122.38915049999999 -122.40504649999998 4.3047842979431161 24.099235534667972 2.5248224735260014 8.4017372131347674 -122.40504649999998 0.50260700634936495 -122.40186549999999 8.4017372131347674 37.780782500000008 37.777634500000005
decision_type=2 2 2 2 2 2 2 2 2 2 2 2 2 2 2 2 2 2 2 2 2 2 2 2 2 2 2 2 2 2 2 2 2 2 2 2 2 2 2 2 2 2 2 2 2 2 2
left_child=2 3 7 11 8 6 27 26 19 13 37 -2 14 21 -13 -16 -7 20 36 -3 -5 -8 31 -24 25 -10 38 28 -4 -21 -15 -20 46 34 44 39 -19 -6 -1 -9 41 -41 -42 -38 -18 -31 -12
right_child=1 4 5 17 10 16 9 35 24 -11 32 12 -14 30 15 -17 33 18 22 29 -22 -23 23 -25 -26 -27 -28 -29 -30 45 -32 -33 -34 -35 -36 -37 43 -39 -40 40 42 -43 -44 -45 -46 -47 -48
leaf_value=-0.028072460465947375 -0.010110202728921332 0.0074954929289837748 -0.023477017926660307 0.010578290576958187 0.018579313458169388 0.0060576314649065464 -0.015309040785142496 -0.028440278203510028 0.012655835957476278 0.0010165026088959238 0.022359634925258172 -0.0021263129015282843 -0.0047593440017142195 -0.021775300942585757 -7.2208809211853845e-06 0.0048217184603020057 -0.010649248857657605 0.018933102135350252 0.0036696354372286405 0.011156771078789311 -0.0078209349011183291 -0.010521976598388057 0.0011617287496264097 0.0096543309103022876 0.0083549514336196482 0.019154094179414608 -0.034609661556075054 -0.016124128638343685 -0.0068421356203439369 0.018421015275697835 -0.0083866197699619446 0.014327034614839546 0.039527464999688955 -0.0095523495118958347 -0.0022644405613678384 -0.036659502865382117 -0.0038837647384808945 0.023815350216151578 -0.0017639468807042981 -0.0036363403011469373 -0.039260595956780053 -0.020313580358859506 -0.024034010761197388 0.0026152951388184642 -0.0041299203251208708 0.013492583489763954 0.027564092033069667
leaf_count=3866 2753 7298 13675 15642 11320 1290 13963 2440 4544 1724 5699 20700 11105 4917 24682 18029 6426 331 16904 14395 589 20115 2690 20743 1845 20576 8281 4139 592 6444 909 1292 682 17673 6995 557 3913 6122 162 416 488 14300 5553 6294 3780 10434 9223
internal_value=0 0.0868344 -0.160359 0.0284463 0.17311 -0.123815 -0.154943 -0.25784 0.143712 -0.129324 0.231412 -0.00491116 -0.00135738 -0.13535 0.00673982 0.0203115 -0.07214 0.0661301 0.05587 0.123095 0.0991061 -0.124834 0.0682041 0.0867942 0.173201 0.179786 -0.321242 -0.212885 -0.227868 0.134329 -0.196863 0.0442636 0.261862 -0.0770493 -0.0580681 -0.224986 0.0071459 0.204171 -0.270144 -0.221585 -0.214201 -0.198421 -0.25264 0.00123787 -0.0823468 0.153743 0.255764
internal_count=376510 244249 132261 145667 98582 96198 60034 36063 65536 41628 33046 77269 74516 39904 63411 42711 36164 68398 52167 38571 16231 34078 41629 23433 26965 25120 12309 18406 14267 31273 5826 18196 15604 34874 17201 23754 10538 17442 4028 23197 20757 14716 6041 10207 10206 16878 14922
shrinkage=0.1


Tree=10
num_leaves=48
num_cat=0
split_feature=6 6 6 6 6 6 6 3 6 6 5 1 6 4 1 6 1 6 4 1 0 6 5 1 6 4 2 3 6 5 4 6 5 1 3 6 0 5 1 5 6 0 6 1 4 1 2
split_gain=4248.77 861.403 498.648 173.394 136.864 109.423 57.8423 67.4596 32.2738 23.7247 21.7603 20.5925 25.9757 19.3541 35.6664 25.6023 18.4323 18.3727 17.4541 16.8965 16.3201 16.0195 15.4302 14.4752 23.4856 13.6363 13.1137 13.0929 12.8938 12.7309 12.6774 12.4003 12.3379 12.0756 11.2331 19.1836 10.669 10.0915 10.0079 9.88961 9.6139 10.6024 9.57132 9.5463 9.26467 8.98051 8.71574
threshold=1.1413565442774771 1.7074042582870936 0.9042414945071402 0.46119046009272396 2.2998118440789423 1.4187878066219861 0.63242031710708069 37.783065000000015 2.0563507913113179 2.8121827892971121 3.3579128980636601 -122.41012349999998 1.0879604877246583 -122.3945385 -122.40307849999998 1.5378374329595483 -122.39536499999998 1.4121979900555532 -122.400938 -122.41456649999999 37.787799000000007 1.5322739289948772 17.083589553833011 -122.39188599999999 1.6090248037977235 -122.40504649999998 3.0484768152236943 37.775707000000004 2.2859712901229003 2.6283768415451054 -122.39848049999999 0.87757438670256704 24.099235534667972 -122.40618599999998 37.783065000000015 1.311189697252207 37.787799000000007 15.845633029937746 -122.39495149999998 4.3047842979431161 0.38014302490784918 37.798531500000003 1.0946733378356286 -122.40281999999998 -122.38915049999999 -122.41841899999999 2.5248224735260014
decision_type=2 2 2 2 2 2 2 2 2 2 2 2 2 2 2 2 2 2 2 2 2 2 2 2 2 2 2 2 2 2 2 2 2 2 2 2 2 2 2 2 2 2 2 2 2 2 2
left_child=2 5 3 30 8 17 44 16 19 39 31 -4 18 14 15 21 20 22 26 -3 -8 -7 34 24 -16 -12 -13 -25 29 -10 40 -9 36 -14 38 -36 -21 -20 -2 -6 -1 -42 -35 -15 46 -31 -5
right_child=1 4 11 6 9 13 7 10 28 -11 25 12 33 43 23 -17 -18 -19 37 32 -22 -23 -24 27 -26 -27 -28 -29 -30 45 -32 -33 -34 42 35 -37 -38 -39 -40 -41 41 -43 -44 -45 -46 -47 -48
leaf_value=-0.030529797887036293 -0.00033282332234274879 0.0067459436843544862 -0.013893783252137705 -0.025596250320775699 0.017997370815205204 0.0028828671223964965 -0.021131553676863278 -0.015185795680103789 0.011390252375498754 0.025611838818509897 -0.0004800333076448428 -0.0064010262251399004 -0.0060924152310814763 0.008124194207024411 0.0085514483091880984 0.0091374252653371162 -0.013855271722460621 -0.0057240707285353444 -0.0085408631881528623 0.013806409494947809 -0.0026205190793635717 -0.0060087371102372257 0.010572954060124953 -0.0097711628694226102 0.016305820082547044 -0.01009008099022868 0.00058633607771768474 0.0063825634203056869 0.007519456306515012 0.012064275809180786 -0.031889715578683968 -0.002479997702297166 0.021852516645632782 0.0067946769617167214 -0.00072369430421056211 0.0040568946057590472 0.010010388982166983 -0.00068478741833876648 -0.0057450771022345762 0.022284030316689355 -0.02041241669015223 -0.040089008698860812 -0.0013228100595196483 0.00260337023596018 -0.032993552877184813 0.018082173236167755 -0.01927808717817852
leaf_count=2254 17678 7298 3098 2440 17356 5362 14906 13353 4544 7889 1616 6252 4500 3768 19390 4081 5634 4901 27615 13252 492 3257 1527 533 4891 17110 4709 8559 1845 2884 6614 815 1243 1784 17806 15880 16778 1738 4235 7801 3141 300 7818 18557 557 17692 20757
internal_value=0 0.0852549 -0.132363 -0.178846 0.155799 0.031934 -0.161372 -0.143261 0.12934 0.208271 -0.11498 -0.0596347 -0.0551198 0.059517 0.0712265 0.0261239 -0.187494 0.00151782 -0.0680419 0.110786 -0.205401 -0.00477146 0.00655888 0.0883902 0.101134 -0.0926076 -0.0339916 0.0543558 0.155881 0.161808 -0.289118 -0.144549 0.120896 -0.0181789 0.0038352 0.0152993 0.116855 -0.080757 -0.0137882 0.193266 -0.254533 -0.221279 0.00185375 0.0353517 -0.202487 0.172387 -0.199427
internal_count=376510 229007 147503 89989 98582 130425 77680 53926 65536 33046 32894 57514 54416 68398 46073 12700 21032 62027 40314 38571 15398 8619 57126 33373 24281 18726 10961 9092 26965 25120 12309 14168 31273 14102 55599 33686 30030 29353 21913 25157 5695 3441 9602 22325 23754 20576 23197
shrinkage=0.1


Tree=11
num_leaves=48
num_cat=0
split_feature=6 6 6 6 6 6 6 3 5 1 1 6 6 1 5 5 6 2 1 6 6 5 0 5 5 6 5 4 4 4 6 6 3 6 4 6 0 3 0 0 4 2 5 6 5 6 2
split_gain=3441.5 704.001 403.905 140.449 127.096 80.0828 46.8522 54.6423 23.4151 23.1196 23.5696 22.8051 36.3168 25.5349 17.7575 17.6259 16.7869 15.9351 14.9302 14.8819 14.2578 13.4115 13.2193 12.4985 12.2199 11.9177 11.5058 11.4841 11.0454 10.5113 10.0442 9.80571 9.09878 15.5387 9.01433 9.47059 8.79471 8.67461 8.62894 8.23443 7.75752 9.59303 9.50742 8.4242 7.62073 11.7568 7.14636
threshold=1.1413565442774771 1.8701087156926841 0.9042414945071402 0.46119046009272396 1.4187878066219861 2.5716409011053334 0.63242031710708069 37.783065000000015 17.083589553833011 -122.41456649999999 -122.40307849999998 1.6090248037977235 1.6777804875216178 -122.40504649999998 2.7284128665924077 3.3579128980636601 0.96203434588861036 16.107697486877449 -122.39536499999998 1.4121979900555532 1.4637997264605123 2.7284128665924077 37.787799000000007 17.083589553833011 13.692461013793947 2.0718819212495867 24.099235534667972 -122.39347049999999 -122.40504649999998 -122.40783899999998 0.87757438670256704 0.35411322130818579 37.783065000000015 1.311189697252207 -122.39347049999999 0.40760513922329478 37.777634500000005 37.789690500000006 37.787065000000013 37.777634500000005 -122.39188599999999 8.4017372131347674 3.0698237419128422 0.50260700634936495 3.3579128980636601 1.0437837742424578 2.8077048063278203
decision_type=2 2 2 2 2 2 2 2 2 2 2 2 2 2 2 2 2 2 2 2 2 2 2 2 2 2 2 2 2 2 2 2 2 2 2 2 2 2 2 2 2 2 2 2 2 2 2
left_child=2 4 3 26 19 9 40 18 11 27 -11 17 13 -13 -14 30 -4 20 22 23 -6 -12 -8 32 37 -23 31 39 -17 -7 -9 -1 38 -34 -33 -36 -19 -18 -2 -3 41 42 -5 -43 46 -46 -39
right_child=1 5 16 6 8 29 7 15 -10 10 21 12 14 -15 -16 28 24 36 -20 -21 -22 25 -24 -25 -26 -27 -28 -29 -30 -31 -32 34 33 -35 35 -37 -38 44 -40 -41 -42 43 -44 -45 45 -47 -48
leaf_value=-0.030698518852528684 5.8874097686084867e-05 0.0073477214215274091 -0.0093913200355416077 -0.019271909721407798 0.0083515212791111793 0.026084469094976984 -0.019018398550730356 -0.013667216026895419 0.014538635728122491 0.01996038803054713 0.010373123303059943 0.0070222181672424389 0.0019638965513942056 0.021001111818792734 0.0074959105887206614 -0.00043202985067575857 -0.0062306411951814494 -0.0055798570977943426 -0.01246974484533169 -0.0051516636471801184 0.0038046541873228558 0.01188762448594205 -0.0023584672312231638 0.0095156587102520201 -0.00073785952340445259 0.015916632501249781 0.00045368948313235136 0.021543838752384317 -0.0090810729458777172 0.01984694288426448 -0.0022319979318331904 -0.022890620866617053 -0.00065132471227678053 0.0036512051149168116 -0.014402659916625005 -0.034469686371854533 0.0031175895701852224 -0.010592752474146476 -0.0042704697613263959 0.013666399052034598 -0.022566710186960055 -0.033406727583496831 -0.013973834481539292 -0.01970280125278091 -0.0078453095094618598 0.0027496879070964455 -0.0033813469867551731
leaf_count=3662 15334 8884 8783 5574 8924 3276 14906 13353 3145 6678 10030 2250 7420 3117 26618 1616 29219 2391 5634 4901 30355 11102 492 1527 6885 21676 162 755 17110 15410 815 6810 17806 15880 283 1392 2263 1825 6579 2686 3506 488 8633 5553 1447 3792 5563
internal_value=0 0.0767294 -0.119127 -0.160961 0.0359093 0.152039 -0.145235 -0.128935 0.0606843 0.134697 0.144349 0.0574878 0.0749546 0.151408 0.0628998 -0.103482 -0.0536712 0.0418212 -0.168744 0.00136604 0.0483768 0.135729 -0.184861 0.00590299 -0.0464183 0.14552 -0.260206 0.0959438 -0.0833469 0.209405 -0.130094 -0.263737 0.00345168 0.0137694 -0.245071 -0.310793 -0.0135074 -0.0528415 -0.0124094 0.0881462 -0.182238 -0.174718 -0.160525 -0.208098 -0.0309397 -0.00176627 -0.0516272
internal_count=376510 229007 147503 89989 148510 80497 77680 53926 86483 61811 49486 83338 39405 5367 34038 32894 57514 43933 21032 62027 39279 42808 15398 57126 48731 32778 12309 12325 18726 18686 14168 12147 55599 33686 8485 1675 4654 41846 21913 11570 23754 20248 14207 6041 12627 5239 7388
shrinkage=0.1


Tree=12
num_leaves=48
num_cat=0
split_feature=6 6 6 6 0 6 6 6 3 6 1 5 5 0 2 0 0 0 6 4 4 4 2 4 0 0 4 5 6 2 6 0 1 4 5 4 3 0 1 0 2 5 3 3 2 1 5
split_gain=2788.22 599.484 297.964 91.4964 83.8268 78.7196 65.7962 31.4582 29.7438 20.7815 17.2229 19.4278 16.6317 16.7968 16.219 15.9975 17.4748 15.4131 15.218 21.4286 17.0895 14.1296 13.4154 12.2356 14.7424 11.4936 11.0733 10.1583 10.0865 9.99004 9.66384 9.71141 9.56789 8.90646 8.9524 8.66315 8.72227 8.4699 8.32454 8.2845 8.27762 8.19132 7.97575 7.86579 10.1134 8.92474 7.81489
threshold=1.1274568385661861 1.7074042582870936 0.7456880310460291 2.2093281547771766 37.776608500000009 1.4187878066219861 0.46119046009272396 0.96203434588861036 37.781542000000009 2.5716409011053334 -122.40846599999999 2.9127869606018071 20.237852096557621 37.797901000000003 13.692461013793947 37.776618000000006 37.780782500000008 37.797901000000003 0.55966765656870132 -122.39848049999999 -122.41456649999999 -122.39046249999997 3.3579128980636601 -122.4008365 37.777634500000005 37.795408500000008 -122.41456649999999 11.516869544982912 3.3462207453964301 24.099235534667972 1.8701087156926841 37.777634500000005 -122.400938 -122.41780999999999 10.594522476196293 -122.39188599999999 37.78437450000002 37.783065000000015 -122.40486649999998 37.777634500000005 12.895608901977541 24.099235534667972 37.777634500000005 37.787065000000013 10.594522476196293 -122.41456649999999 11.516869544982912
decision_type=2 2 2 2 2 2 2 2 2 2 2 2 2 2 2 2 2 2 2 2 2 2 2 2 2 2 2 2 2 2 2 2 2 2 2 2 2 2 2 2 2 2 2 2 2 2 2
left_child=2 5 6 10 8 17 32 12 -4 43 30 -12 13 40 18 21 -17 25 35 20 -20 -7 27 24 -9 29 -24 -18 39 46 -3 -32 38 -16 -35 36 -8 -13 -1 -11 -6 -39 -26 44 -5 -45 -2
right_child=1 3 4 9 7 15 14 23 -10 28 11 37 -14 -15 33 16 22 -19 19 -21 -22 -23 26 -25 42 -27 -28 -29 -30 -31 31 -33 -34 34 -36 -37 -38 41 -40 -41 -42 -43 -44 45 -46 -47 -48
leaf_value=-0.021254100337548709 -0.00041211032625612578 0.0029373502792174717 -0.016970822700188019 0.014402697744121408 -0.0088191815046427327 0.0080977196188075709 -0.029272226485859684 -0.0073225707299306502 -0.0059407244483728437 0.015798822449590615 0.008131658805893947 0.01462655076654024 0.0019219463352778479 -0.015577706930846659 -0.0051998570675912395 0.0002926611880759211 0.0021608145217029899 -0.0037582224412743555 -0.020899198805899924 -0.01474801965345774 -0.0061601298068535522 -0.0076796440953145308 0.00039661115636964298 -0.0054898755252183757 -0.0065671532935607183 0.010916410783212281 0.0072159327445386048 0.011360508188026476 0.030783728775139858 0.0094676899886160029 0.0065898988489071471 0.01338134653895983 -0.025167145235520185 -0.018498734942128458 -0.027719019720822854 -0.023813366967656124 -0.015297526422157624 0.010931554876162927 -0.0084703379323646886 0.020167168388334711 -0.0042232676191694364 0.024102569873809616 0.0015764556892530958 0.0076679139232202365 0.021847809545945798 0.014261581756960849 0.0025311281834434541
leaf_count=2855 43956 3985 11180 8172 25668 15642 470 3455 3129 7307 14799 11912 1494 3352 411 10538 16904 9549 903 15123 6106 589 2690 27799 1420 1056 20743 1292 682 1186 6484 3118 8834 5161 1323 1666 8981 19349 620 10697 4625 484 7857 3077 2349 6167 11351
internal_value=0 0.0671272 -0.110319 0.126457 -0.0753979 0.023961 -0.170224 -0.062125 -0.145588 0.164555 0.102095 0.111239 -0.084023 -0.0886075 -0.150613 0.0478342 0.0393036 -0.000374786 -0.141459 -0.126297 -0.0805903 0.0752518 0.0485121 -0.0431402 -0.0174667 0.00579898 0.0643311 0.0281404 0.188464 0.00386681 0.0707715 0.0879525 -0.234185 -0.194752 -0.2038 -0.171645 -0.159925 0.125189 -0.189733 0.183943 -0.081175 0.11253 0.0032994 0.14195 0.16065 0.120668 0.00191949
internal_count=376510 234078 142432 98582 89979 135496 52453 75670 14309 38451 60131 46544 35139 33645 40144 68398 52167 67098 33249 22132 7009 16231 41629 40531 12732 57549 23433 18196 18686 56493 13587 9602 12309 6895 6484 11117 9451 31745 3475 18004 30293 19833 9277 19765 10521 9244 55307
shrinkage=0.1


Tree=13
num_leaves=48
num_cat=0
split_feature=6 6 6 6 6 6 0 6 5 6 6 1 4 6 0 5 3 6 0 0 4 3 0 1 0 2 6 5 5 6 6 4 4 1 6 6 4 2 3 5 1 1 5 4 3 4 3
split_gain=2260.82 534.184 204.138 75.3463 75.277 66.9162 41.7314 37.1305 21.6163 19.669 18.5252 18.3054 15.1981 14.6249 14.6096 14.4637 14.3866 13.7612 13.4208 16.7943 11.445 11.2565 11.0902 10.7889 12.6026 9.5352 9.45093 9.26062 9.24065 9.08831 8.76152 9.38436 8.55843 8.40523 8.19094 12.1355 8.1316 8.05166 7.73859 7.73022 7.62901 7.58684 7.29385 6.84697 6.59593 16.5573 6.56757
threshold=1.0879604877246583 1.7030435640147428 0.63242031710708069 1.4187878066219861 2.2093281547771766 0.94643015045360446 37.781185500000007 0.42216645006698611 13.692461013793947 0.77494807708018898 2.931138424488148 -122.41456649999999 -122.40618599999998 2.0563507913113179 37.797901000000003 12.895608901977541 37.781185500000007 1.311189697252207 37.776618000000006 37.780782500000008 -122.39046249999997 37.786641500000009 37.791857500000013 -122.400938 37.785088500000008 16.107697486877449 2.0879505939627601 17.083589553833011 11.516869544982912 2.0854805222800263 1.4815628154374507 -122.40504649999998 -122.41456649999999 -122.39666100000001 1.7468868110068478 1.8701087156926841 -122.40281999999998 2.8077048063278203 37.791857500000013 20.237852096557621 -122.40783899999998 -122.3945385 3.01521909236908 -122.4008365 37.789690500000006 -122.39495149999998 37.785802000000011
decision_type=2 2 2 2 2 2 2 2 2 2 2 2 2 2 2 2 2 2 2 2 2 2 2 2 2 2 2 2 2 2 2 2 2 2 2 2 2 2 2 2 2 2 2 2 2 2 2
left_child=2 3 7 11 13 6 25 -1 9 15 21 46 -7 27 16 -8 -13 -18 20 30 44 23 32 -6 -25 39 29 34 -24 -15 -20 -32 -21 -9 -3 -36 -28 -29 -35 -4 -14 -11 -12 -16 -5 -46 -2
right_child=1 4 5 18 10 12 8 33 -10 41 42 14 40 26 43 -17 17 -19 19 22 -22 -23 28 24 -26 -27 36 37 -30 -31 31 -33 -34 38 35 -37 -38 -39 -40 -41 -42 -43 -44 -45 45 -47 -48
leaf_value=-0.022928314114659277 -0.010088541802806062 0.01085383893792077 -0.014146754196198354 0.0050436792064599539 0.019466606318600952 0.005932069006320412 -0.010855296844411836 -0.013717942291216523 -0.00097744361951666967 -0.0078502117831712806 0.017885891647337719 -0.0015881676127167293 0.0060861138845918709 0.012047481355504229 0.0030764905037608519 -0.02506962304222754 8.995946266762727e-05 0.0037242700584264581 0.0062532437052709687 -0.00035247440322426146 -0.0069116797188053013 0.012000371054505785 0.0012187644498778917 0.029087085829135259 0.013325802559770221 -0.027785349775596081 0.015429180030360486 0.033033644819510107 0.010025472143319688 0.01995298827881422 0.014964393624231173 -0.0022182823832591473 0.0060643284224450797 -0.018386407095380936 0.0043013169287422033 0.0084455360481411577 0.0087027108490441169 0.012315657103187392 -0.011735649371667989 0.0041947696585799754 -0.0053162877267151961 -0.0027671487910383473 0.025972781214050378 -0.0043149020169226601 0.020320542879619288 0.0074233041303403387 0.0051299374330443593
leaf_count=8059 2432 6517 16651 7128 5261 1290 18926 15936 3516 15851 3851 20700 597 5578 1440 744 24682 18029 1747 2266 589 15864 12498 531 11374 509 2117 206 1317 1967 331 8001 25124 9945 11057 19576 11898 2098 2123 233 34277 3604 1570 9665 1151 7363 321
internal_value=0 0.0570222 -0.105304 0.0182604 0.113445 -0.0812497 -0.10172 -0.169469 -0.0848813 -0.0916308 0.148099 -0.00306356 -0.0472682 0.0916058 -0.000105106 -0.113929 0.00575455 0.0162406 0.0426651 0.0347333 0.0677266 0.139207 0.0436833 0.156954 0.140288 -0.143002 0.11255 0.080161 0.0205832 0.141085 -0.00185618 -0.0153568 0.0553346 -0.152256 0.0763456 0.0694968 0.0971876 0.14168 -0.172164 -0.138936 -0.0512109 -0.0690858 0.20228 -0.0335645 0.0728795 0.0916687 -0.0831407
internal_count=376510 244249 132261 144784 99465 96198 60034 36063 42641 39125 38451 77269 36164 61014 74516 19670 63411 42711 67515 51284 16231 33030 41205 17166 11905 17393 21560 39454 13815 7545 10079 8332 27390 28004 37150 30633 14015 2304 12068 16884 34874 19455 5421 11105 15642 8514 2753
shrinkage=0.1


Tree=14
num_leaves=48
num_cat=0
split_feature=6 6 6 6 6 6 0 6 1 1 6 6 0 2 4 6 5 5 2 1 4 6 6 6 6 0 5 1 3 4 3 4 2 4 1 6 0 1 6 5 5 1 3 3 0 3 4
split_gain=1832.92 373.743 219.409 78.6543 64.4001 44.3332 26.0658 28.318 15.1822 16.6722 14.7602 25.0758 17.0409 13.5866 16.3932 13.5779 12.9734 11.9819 12.7503 11.9006 13.9653 11.1851 10.862 10.8536 10.4885 9.32177 8.87943 8.70471 8.6209 8.59963 8.54669 8.32682 8.54901 7.85683 10.4172 7.4059 7.43451 7.31607 7.16309 6.95928 6.95304 9.33012 6.82562 8.95608 7.72026 6.62544 7.14422
threshold=1.1498531904954916 1.8701087156926841 0.9042414945071402 0.51988461665863006 1.4187878066219861 2.5716409011053334 37.781542000000009 0.77494807708018898 -122.41456649999999 -122.40307849999998 1.6090248037977235 1.6777804875216178 37.791382000000013 13.692461013793947 -122.3945385 0.35411322130818579 20.237852096557621 2.7284128665924077 8.4017372131347674 -122.41456649999999 -122.4008365 1.4637997264605123 1.0295279737972127 0.75416098162322887 1.4121979900555532 37.791857500000013 15.845633029937746 -122.40281999999998 37.781185500000007 -122.39347049999999 37.791382000000013 -122.3945385 2.4948354959487919 -122.39878799999998 -122.39848049999999 1.0879604877246583 37.785088500000008 -122.41456649999999 0.40760513922329478 24.099235534667972 11.516869544982912 -122.39347049999999 37.783065000000015 37.787065000000013 37.787065000000013 37.775707000000004 -122.39536499999998
decision_type=2 2 2 2 2 2 2 2 2 2 2 2 2 2 2 2 2 2 2 2 2 2 2 2 2 2 2 2 2 2 2 2 2 2 2 2 2 2 2 2 2 2 2 2 2 2 2
left_child=2 4 3 15 24 8 28 13 -3 -10 16 12 30 14 -8 -1 21 18 -13 -4 22 25 -21 -15 26 -6 42 -19 45 39 -12 32 -11 34 -7 -22 -37 -23 -31 -17 41 -9 44 -44 -2 -5 -47
right_child=1 5 19 6 10 33 7 40 9 31 11 17 -14 23 -16 29 -18 27 -20 20 35 37 -24 -25 -26 -27 -28 -29 -30 38 -32 -33 -34 -35 -36 36 -38 -39 -40 -41 -42 -43 43 -45 -46 46 -48
leaf_value=-0.023023602337856233 0.00013533692465482954 0.0066830739650899423 -0.010851595677451963 -0.011616012221057371 0.0070620007875819464 0.021682398968126158 -0.0082736758575834759 -0.0077036805958238547 0.015252839802688684 0.0067818679854555449 0.018516727870776181 -0.00051270164691520929 0.0042716561211891737 -0.016522862051550014 -0.013485758617733781 -0.015644652355130625 0.013611202774872024 0.0030095978096704658 0.011259946224035484 -0.0045745175413068658 -0.0054575205237186904 -0.002934620874875339 0.00050947531515578375 -0.00047077421450983397 -0.0042847355726582902 -0.0019910432765874245 0.0070740914755187904 0.0068630249140385659 -0.0087174204382428101 -0.0081528475982085204 0.0077149062921525319 0.0070516319843768093 0.01122384074798919 0.013374079353037863 0.014768543731694287 0.0039871586016228984 -0.0035154562000817959 0.0024533079463245544 -0.025502955377297354 0.0014739450441542551 -0.0018732831448011183 0.00085680065487496807 0.0032761777159012644 -0.00011669729976321276 -0.0040389051543315993 -0.018710356830935301 -0.01347173860677515
leaf_count=3662 15018 12325 2350 6187 8504 3582 20442 11610 6678 5083 2849 6344 1957 5118 8562 12716 1155 8353 1076 6556 29010 2739 11706 459 4901 1313 2005 19659 3433 283 986 8370 29355 9539 5565 1609 7373 31548 1495 242 3739 1430 12737 19991 6285 4581 6030
internal_value=0 0.0563371 -0.0864118 -0.117421 0.0264138 0.111138 -0.102434 -0.0904584 0.0982346 0.106056 0.0439583 0.0576468 0.118648 -0.106815 -0.0981229 -0.17574 0.0314901 0.0476751 0.0119449 -0.0387951 -0.0358825 0.0287502 -0.0131566 -0.152017 0.00151432 0.0585118 0.00539427 0.0571396 -0.132837 -0.162198 0.157395 0.0988064 0.105682 0.15382 0.17476 -0.0468064 -0.0217147 0.020229 -0.227414 -0.15325 -0.0567487 -0.0676492 0.00296936 0.0120373 -0.0109618 -0.142169 -0.157334
internal_count=376510 227917 148593 89989 147420 80497 71591 51360 61811 49486 86483 41224 5792 34581 29004 18398 45259 35432 7420 58604 56254 44104 18262 5577 60937 9817 56036 28012 20231 14736 3835 42808 34438 18686 9147 37992 8982 34287 1778 12958 16779 13040 54031 32728 21303 16798 10611
shrinkage=0.1


Tree=15
num_leaves=48
num_cat=0
split_feature=6 6 6 6 6 6 0 6 6 2 4 1 6 2 4 1 4 4 5 2 6 5 2 4 5 6 2 1 5 1 0 1 5 3 5 6 0 3 0 2 4 4 0 5 0 3 1
split_gain=1484.67 303.54 177.721 64.5765 50.5696 34.4075 26.8331 16.7403 16.2614 14.9977 15.8959 12.8631 11.2795 10.5694 14.0965 9.64702 12.8429 8.9221 8.84697 15.5915 8.79145 8.783 8.79986 8.53606 10.9494 7.96898 7.78213 15.2667 10.1321 7.76053 7.52966 9.82553 7.34133 7.14972 6.8991 6.59872 6.71304 6.59816 6.40398 6.58785 6.32898 6.25083 9.7608 6.21047 15.1716 6.91452 7.10416
threshold=1.1498531904954916 1.7030435640147428 0.9042414945071402 0.55966765656870132 2.2998118440789423 1.4187878066219861 37.781542000000009 0.42216645006698611 0.77494807708018898 13.692461013793947 -122.40039049999999 -122.41456649999999 2.931138424488148 16.107697486877449 -122.3945385 -122.41012349999998 -122.4008365 -122.39347049999999 11.516869544982912 3.01521909236908 0.75416098162322887 2.9127869606018071 6.8346450328826913 -122.41456649999999 3.3579128980636601 1.3849931189947899 10.594522476196293 -122.40486649999998 6.4191472530364999 -122.40281999999998 37.779588000000011 -122.39827199999998 4.3047842979431161 37.781185500000007 15.845633029937746 2.0563507913113179 37.780782500000008 37.802361500000011 37.802361500000011 8.4017372131347674 -122.39759699999999 -122.40307849999998 37.777634500000005 10.594522476196293 37.785802000000011 37.790029000000004 -122.4008365
decision_type=2 2 2 2 2 2 2 2 2 2 2 2 2 2 2 2 2 2 2 2 2 2 2 2 2 2 2 2 2 2 2 2 2 2 2 2 2 2 2 2 2 2 2 2 2 2 2
left_child=2 5 3 7 11 18 33 43 9 10 -8 41 32 14 23 -4 30 -9 26 -20 -11 22 37 -7 -25 -21 40 28 -28 -16 -17 -32 -6 -5 -18 36 -23 -13 39 -10 -2 42 -3 45 -45 -1 -47
right_child=1 4 15 6 12 13 8 17 38 20 -12 21 -14 -15 29 16 34 -19 19 25 -22 35 -24 24 -26 -27 27 -29 -30 -31 31 -33 -34 -35 -36 -37 -38 -39 -40 -41 -42 -43 -44 44 -46 46 -48
leaf_value=-0.023382819042973221 0.00018520760342402226 -0.0040973014740302459 -0.0088134805087314531 -0.01282242462032205 0.010451446951992911 -0.00040336121090716855 -0.0031811965715661107 -0.012220547352861676 -0.0065227169400803395 -0.014870576035385823 -0.0093645977581691218 0.005930228485751002 0.016584784718353614 -0.00052011128260165927 0.0070001329732298379 -0.0042207459974833066 -0.0045624250252241988 -0.019142452499582737 0.0081033288758211534 -0.00072833719123783396 -0.0004236966830983653 0.010725502056037254 0.010735376064172892 0.0037754538675074025 0.0072144243433770643 0.014874552255347478 0.0019887438131377957 0.010802072920003142 -0.0062198068043819886 0.0010130880196811951 -0.0019026400306956818 0.0038428473041267584 0.013918086503777544 -0.0077472607878932747 0.00097802469376523393 0.010718162288164162 0.0068747642437610047 -0.0015651749345794266 0.017720229166123869 -0.0021058513133062752 -0.0023597891163853152 0.0055647160088030043 0.021186273377899727 -0.021549699636505791 -0.00079569502724247251 -0.027547598921999563 -0.014996528459158071
leaf_count=3125 19584 1360 3219 16654 18506 2816 5446 14433 11950 5118 17572 11821 5421 6202 2451 4971 35593 2138 3604 6757 459 6444 3652 20811 16678 344 7627 1646 1873 18557 7477 4945 9119 3331 2399 15588 15220 1304 122 4707 19502 10858 172 828 613 532 2961
internal_value=0 0.0507034 -0.0777706 -0.105679 0.0921754 0.0185901 -0.0892347 -0.149317 -0.0757876 -0.0902891 -0.0790162 0.0762708 0.124142 0.0341389 0.0381183 -0.0349156 -0.0318224 -0.131136 0.00136289 0.0274637 -0.136816 0.082935 0.0639362 0.0490652 0.0530537 0.000275273 -0.00419948 0.0191088 0.00370363 0.017116 -0.00931667 0.00384547 0.115958 -0.119765 -0.0421257 0.0914914 0.0802017 0.0518554 -0.0510739 -0.0527458 -0.0108462 0.0472102 -0.0125868 -0.186701 -0.12721 -0.199655 -0.169081
internal_count=376510 227917 148593 89989 99465 128452 65359 24630 45374 28595 23018 66419 33046 67515 61313 58604 55385 16571 60937 10705 5577 54029 16777 40305 37489 7101 50232 11146 9500 21008 17393 12422 27625 19985 37992 37252 21664 13125 16779 16657 39086 12390 1532 8059 1441 6618 3493
shrinkage=0.1


Tree=16
num_leaves=48
num_cat=0
split_feature=6 6 6 6 6 6 0 6 6 5 0 1 4 3 0 3 6 0 5 0 0 4 1 2 4 1 6 6 2 2 0 3 3 0 1 5 4 5 2 2 5 0 1 3 1 5 6
split_gain=1205.63 286.446 110.965 41.8068 38.6041 35.371 23.4719 19.9323 16.4338 14.1964 12.0477 11.4807 10.6886 9.39363 9.00047 9.27625 9.44734 8.95646 8.89501 10.3639 12.6493 8.2954 6.91652 6.82996 6.61399 8.23292 6.48034 10.9556 6.52261 6.07872 6.04239 8.27157 5.89874 5.78176 6.24439 5.6895 5.23263 5.22888 5.22212 8.49181 9.54151 8.4884 5.17007 4.85954 5.17374 8.61138 4.63139
threshold=1.0879604877246583 1.7030435640147428 0.63242031710708069 2.5560707560850422 1.4187878066219861 0.96203434588861036 37.781185500000007 0.42216645006698611 2.0563507913113179 13.692461013793947 37.797901000000003 -122.41456649999999 -122.40618599999998 37.799247000000008 37.797901000000003 37.781185500000007 1.311189697252207 37.790029000000004 17.083589553833011 37.776618000000006 37.777634500000005 -122.39046249999997 -122.41456649999999 16.107697486877449 -122.39878799999998 -122.39848049999999 1.0839169900278329 1.0701196748197475 13.692461013793947 9.6267123222351092 37.78437450000002 37.789690500000006 37.776618000000006 37.794616000000012 -122.39431849999998 20.237852096557621 -122.39347049999999 17.083589553833011 3.0698237419128422 4.3047842979431161 8.4017372131347674 37.787799000000007 -122.40486649999998 37.791857500000013 -122.395853 2.9127869606018071 1.9173379648196847
decision_type=2 2 2 2 2 2 2 2 2 2 2 2 2 2 2 2 2 2 2 2 2 2 2 2 2 2 2 2 2 2 2 2 2 2 2 2 2 2 2 2 2 2 2 2 2 2 2
left_child=2 4 7 8 11 6 23 38 22 10 17 -2 -7 -12 15 -13 -17 -8 19 21 -21 -6 -3 35 25 -5 27 29 -29 -14 46 -32 -22 37 -35 -4 -9 -10 43 -40 -41 -42 -11 44 -1 -46 -24
right_child=1 3 5 24 18 12 9 36 33 42 13 14 26 -15 -16 16 -18 -19 -20 20 32 -23 30 -25 -26 -27 -28 28 -30 -31 31 -33 -34 34 -36 -37 -38 -39 39 40 41 -43 -44 -45 45 -47 -48
leaf_value=-0.028717169677297219 -0.0065423862400968529 0.0031587335333837403 -0.010313599921118776 0.017837028857976518 0.0055224326371633645 0.0056331183910364518 -0.0072085293078931181 -0.010603227452434085 0.0076205196439866583 -0.0056731073242342993 -0.012577564207664175 -0.0012438528109774858 -0.0043016359981410636 -0.0015120931853203675 -0.0025926384473150387 6.4414320506560633e-05 0.0030756768691845258 -0.0039721819463614813 0.010106852457849881 -0.0049279673974106063 0.0040162654032188027 -0.0065671511303804627 0.010348746331260665 -0.021853536853764833 0.010631988443803701 0.011886453376758963 -0.0065841915798218577 0.0081047856312620251 -0.004319963026507871 -0.00020309023398159076 0.0064654675138460672 0.0014228373989585673 0.0016878719318783179 0.012099785318337906 0.006809046034910656 0.0054217610093005514 -0.014518814552245244 0.013078733633934315 -0.0079152636788384027 -0.022642834594610719 -0.015907694134249268 -5.8186240719703463e-05 0.0025831004807785243 -0.013796518345139395 -0.02246995080362937 -0.00037341183171146243 0.0064534819830703834
leaf_count=860 2753 7757 16651 3949 15595 1290 21976 24026 27668 1107 4917 20700 19700 909 11105 24682 18029 13998 1751 2391 17017 589 5592 509 9707 5654 6101 1350 615 4433 15249 4135 30172 8077 3082 233 3978 1874 1305 1769 1634 426 2409 848 1003 214 6721
internal_value=0 0.0416408 -0.0768988 0.0829579 0.0132564 -0.059164 -0.0731769 -0.124206 0.0728952 -0.061191 -0.0663243 -0.00200714 -0.0329246 -0.108511 0.0003358 0.00493503 0.0133552 -0.0594922 0.030725 0.0288521 0.0216798 0.0508244 0.0583519 -0.104405 0.124728 0.143335 -0.0365005 -0.0296413 0.0421612 -0.0354877 0.0649018 0.0538977 0.0252752 0.0869928 0.106385 -0.100965 -0.111594 0.0796676 -0.168031 -0.148817 -0.17256 -0.126301 -0.00016337 -0.201756 -0.2278 -0.185844 0.0822253
internal_count=376510 244249 132261 99465 144784 96198 62709 36063 80155 45316 41800 77269 33489 5826 74516 63411 42711 35974 67515 65764 49580 16184 39454 17393 19310 9603 32199 26098 1965 24133 31697 19384 47189 40701 11159 16884 28004 29542 8059 5134 3829 2060 3516 2925 2077 1217 12313
shrinkage=0.1


Tree=17
num_leaves=48
num_cat=0
split_feature=6 6 6 6 6 6 0 6 6 4 1 5 4 0 0 5 0 0 3 4 6 5 3 6 6 0 3 2 2 6 6 1 6 6 2 0 1 2 4 3 5 4 0 0 1 3 0
split_gain=976.562 232.021 89.8818 33.999 31.2693 28.6505 19.0123 16.1452 13.5462 11.8865 9.29939 9.11589 8.6578 7.29038 8.47819 7.20496 8.39473 10.2459 6.81311 9.93878 6.31514 6.25825 6.04049 5.88479 8.94912 6.39259 5.55538 5.53227 5.48783 5.48405 6.90101 5.30669 5.24908 8.87407 5.28332 5.1411 5.42184 4.92376 4.86751 4.85572 4.6085 4.58016 4.57383 4.49482 4.43312 5.24858 5.11132
threshold=1.0879604877246583 1.7030435640147428 0.63242031710708069 2.5716409011053334 1.4187878066219861 0.96203434588861036 37.781185500000007 0.42216645006698611 2.0563507913113179 -122.3945385 -122.41456649999999 12.411732196807861 -122.40618599999998 37.797901000000003 37.795408500000008 17.083589553833011 37.776618000000006 37.777634500000005 37.789690500000006 -122.39495149999998 0.85501687681823435 24.099235534667972 37.781185500000007 0.7456880310460291 0.70149460099049998 37.787065000000013 37.789690500000006 16.107697486877449 2.8077048063278203 1.7468868110068478 1.8701087156926841 -122.39759699999999 1.0839169900278329 1.0701196748197475 13.692461013793947 37.794616000000012 -122.39848049999999 9.6267123222351092 -122.39347049999999 37.777634500000005 20.237852096557621 -122.39347049999999 37.786641500000009 37.789690500000006 -122.39666100000001 37.791857500000013 37.796352500000005
decision_type=2 2 2 2 2 2 2 2 2 2 2 2 2 2 2 2 2 2 2 2 2 2 2 2 2 2 2 2 2 2 2 2 2 2 2 2 2 2 2 2 2 2 2 2 2 2 2
left_child=2 4 7 8 10 6 27 -1 21 11 -2 20 -7 14 22 16 18 -18 38 -20 -8 29 -12 24 -11 -25 43 40 -23 39 -31 -19 33 37 -35 -10 -37 -14 -6 -3 41 -4 -13 -5 46 -46 -9
right_child=1 3 5 26 15 12 9 44 35 23 13 42 32 -15 -16 -17 17 31 19 -21 -22 28 -24 25 -26 -27 -28 -29 -30 30 -32 -33 -34 34 -36 36 -38 -39 -40 -41 -42 -43 -44 -45 45 -47 -48
leaf_value=-0.015122773749442453 -0.0058881476923236765 0.0049717134829131765 -0.0097962131838428071 0.024461522187691917 0.0032448841640646607 0.005069806427371557 -0.0062641603797893913 -0.0083356456835964564 0.0071574240442438576 -0.0050384309620321414 -0.0011194675291409609 -0.003932964711207596 -0.0038714724118557768 -0.0023333745184882836 0.0083592859084085334 0.0090961671166261641 -0.0044351705383844963 0.0035516586981081269 0.01516312978951413 0.0051707665780093082 -0.0031775710333744253 0.027021664657711403 0.00097281864029983385 -0.001166497997115652 -0.014151005633447983 -0.0079706237651548991 0.0095443566766944231 -0.019668183223415747 0.0092497879518827885 0.0025138404114826507 0.0055879029721544633 0.001394066002140335 -0.0059257722825165208 0.0072943070142824189 -0.0038879670229091169 0.011478513444110281 0.0070255795173935452 -0.00018278114759248107 -0.0052114382445648784 0.010407149489973623 0.0048795850991467295 -0.0039304357205885909 0.0028061988976248991 0.012584090819080554 -0.012452878401992615 -0.0069756454316043971 -0.014181287841790775
leaf_count=8059 2753 3342 15192 330 6915 1290 18079 14265 30010 1672 20700 1768 19700 11105 1325 1751 2391 19262 1151 7363 10466 206 41386 1778 3032 6181 9120 509 1110 11474 20088 27927 6101 1350 615 6691 4624 4433 755 3234 233 1459 2340 9236 9945 2123 1671
internal_value=0 0.0374767 -0.0692089 0.0746621 0.0119307 -0.0532476 -0.0658592 -0.111786 0.0657699 -0.0550719 -0.00180642 -0.0449861 -0.0296322 0.00030222 0.00444152 0.0276525 0.0259669 0.0195118 0.045742 0.0652163 -0.0513247 0.0525167 0.00275233 -0.0810792 -0.10912 -0.0645062 0.113103 -0.0939647 0.120317 0.0501772 0.0447036 0.0227477 -0.0328505 -0.0266772 0.0379451 0.0784231 0.0965877 -0.031939 0.0241248 0.076448 -0.0908681 -0.0928224 -0.000942006 0.129938 -0.100435 -0.114893 -0.089486
internal_count=376510 244249 132261 99465 144784 96198 62709 36063 80779 45316 77269 32653 33489 74516 63411 67515 65764 49580 16184 8514 28545 39454 62086 12663 4704 7959 18686 17393 1316 38138 31562 47189 32199 26098 1965 41325 11315 24133 7670 6576 16884 16651 4108 9566 28004 12068 15936
shrinkage=0.1


Tree=18
num_leaves=48
num_cat=0
split_feature=6 6 6 6 6 6 6 6 5 0 6 1 4 4 2 1 5 6 4 6 6 2 4 1 4 2 2 5 2 1 6 6 0 5 3 5 4 1 5 1 6 3 1 5 6 5 0
split_gain=795.644 136.324 127.934 37.6814 19.7696 19.1876 16.2464 12.1251 11.7607 11.6946 13.1357 11.6373 10.3519 9.8694 9.80865 9.12275 13.3503 8.85626 12.802 8.66113 7.92724 7.96455 11.4456 13.2906 9.96157 7.39883 7.27154 6.76859 7.63577 7.02972 9.555 7.09198 6.65968 6.50765 7.23512 6.44373 6.41456 6.28871 6.22956 6.12792 5.52149 5.4975 5.36889 5.96074 5.20341 5.09498 4.89861
threshold=1.2824788592189644 1.8701087156926841 0.9042414945071402 0.51988461665863006 2.5716409011053334 1.5960545242443958 1.6777804875216178 1.9173379648196847 17.083589553833011 37.781542000000009 0.77494807708018898 -122.40504649999998 -122.40504649999998 -122.40504649999998 2.7284128665924077 -122.40486649999998 2.5634586811065678 1.0513414492750235 -122.39046249999997 2.0563507913113179 1.2746288390121583 12.411732196807861 -122.3945385 -122.400938 -122.40783899999998 13.692461013793947 6.8346450328826913 2.7284128665924077 8.4017372131347674 -122.40281999999998 1.7074042582870936 1.7733746244177153 37.78437450000002 3.0698237419128422 37.79519650000001 12.895608901977541 -122.40846599999999 -122.40039049999999 24.099235534667972 -122.39046249999997 0.35411322130818579 37.78437450000002 -122.39347049999999 11.516869544982912 3.221990087585529 2.9127869606018071 37.777634500000005
decision_type=2 2 2 2 2 2 2 2 2 2 2 2 2 2 2 2 2 2 2 2 2 2 2 2 2 2 2 2 2 2 2 2 2 2 2 2 2 2 2 2 2 2 2 2 2 2 2
left_child=2 5 3 38 7 8 11 -3 14 45 13 35 32 -11 33 16 -16 18 37 -9 21 22 24 -24 -19 -15 -17 28 -8 31 -31 -29 -13 34 -2 -7 -23 -4 40 -39 -1 -35 43 -12 46 -5 -6
right_child=1 4 17 9 44 6 27 19 -10 10 42 12 -14 25 15 26 -18 20 -20 -21 -22 36 23 -25 -26 -27 -28 29 -30 30 -32 -33 -34 41 -36 -37 -38 39 -40 -41 -42 -43 -44 -45 -46 -47 -48
leaf_value=-0.015432671561164797 -0.004903077264962215 0.015327153780645003 -0.0045923125275525748 -0.012336816756868237 0.0077506462969828584 0.0015410554678034695 -0.0010233943668747024 0.0044774957552189678 0.0084278262407884025 0.0022622824180558304 -0.0052477030633904702 0.019236414482603312 0.015182610581300366 -0.0066435822397244966 0.01153313682476341 0.0018447335070956772 -0.00047096136296379318 -0.0043480603513261018 -0.012347576599587733 0.0070580756682079642 -0.0077489695209878046 0.0073303154117454281 0.0044055461119836071 -0.0043691702036416117 0.0021445961452002797 -0.010679567333262878 0.0051025389111568594 0.0046066490036873655 0.0080870752945982356 0.0028136125879926425 0.0072671318156256786 -0.0012759328376281479 0.00090113562235590136 -0.00071359885262245275 -0.00015592522236647499 0.017679238101076064 -0.0035954689489146661 -0.0010132385364241378 0.0041875940772573934 -0.0078414445405024652 -0.01108671991603161 0.0053844126116546201 0.0021766075923784003 -0.00063429591339150913 0.017163880808372143 -0.0080183182041618662 0.011145727932724479
leaf_count=3662 5622 1507 13423 3256 7108 2389 6344 18979 2218 1116 11610 244 2759 28045 967 34006 22107 2733 1544 41325 1820 562 2128 9141 17460 5420 8580 3607 1076 11212 8447 4746 1053 3654 7485 276 12254 14236 242 1448 14494 2483 1478 3691 1009 16975 10569
internal_value=0 0.040984 -0.0515617 -0.0771427 0.0732898 0.0208679 0.0383826 0.0646732 0.0123936 -0.0667692 -0.0587476 0.0834585 0.117188 -0.0698875 0.0105157 0.0163346 0.000321141 -0.0215678 -0.0347415 0.0624591 -0.0128085 -0.0101498 -0.00158991 -0.0271218 0.0126585 -0.0729725 0.025011 0.0298322 0.00297747 0.0369457 0.0472718 0.0126429 0.0435049 -0.00933808 -0.0219213 0.032124 -0.0311636 -0.0300345 -0.117508 -0.0164364 -0.119633 0.0175363 -0.0357888 -0.0413483 0.101792 -0.0871334 0.0978055
internal_count=376510 209772 166738 89989 80497 129275 42153 61811 87122 71591 51360 6721 4056 34581 84904 65660 23074 76749 30651 60304 46098 44278 31462 11269 20193 33465 42586 35432 7420 28012 19659 8353 1297 19244 13107 2665 12816 29107 18398 15684 18156 6137 16779 15301 18686 20231 17677
shrinkage=0.1


Tree=19
num_leaves=48
num_cat=0
split_feature=6 6 6 6 6 6 6 3 0 4 0 6 0 6 5 0 4 2 1 5 2 2 5 6 6 5 1 1 6 6 6 1 3 5 3 6 4 6 2 6 6 6 1 4 4 2 0
split_gain=644.471 110.422 103.867 33.4144 16.0134 15.6762 16.244 13.8291 14.0559 11.7512 11.0705 10.8146 10.795 9.82131 9.36595 9.26135 8.42305 8.01567 8.30218 10.955 7.3491 7.07452 8.14918 7.01552 6.57893 5.48256 6.24117 5.69407 7.73955 5.86059 5.46058 7.60098 5.36198 5.27119 5.86045 5.13835 5.84345 10.2014 8.85515 6.60892 6.45402 6.05398 10.9232 4.95949 4.93033 4.79017 4.48439
threshold=1.2824788592189644 1.8701087156926841 0.94643015045360446 0.55966765656870132 2.5716409011053334 1.6090248037977235 1.6777804875216178 37.783065000000015 37.796352500000005 -122.40307849999998 37.795408500000008 0.59039565220066781 37.799247000000008 1.9173379648196847 17.083589553833011 37.791382000000013 -122.39848049999999 2.7284128665924077 -122.40486649999998 2.5634586811065678 6.8346450328826913 5.8304147720336923 8.4017372131347674 2.0563507913113179 0.76140084824563925 2.7284128665924077 -122.4008365 -122.40281999999998 1.7074042582870936 1.7354047429833686 0.35411322130818579 -122.395853 37.791382000000013 3.0698237419128422 37.79519650000001 1.2746288390121583 -122.3945385 1.1715419170243979 2.6283768415451054 0.99486564918344389 1.166840811531147 1.2000537684944239 -122.400938 -122.3945385 -122.39347049999999 2.4948354959487919 37.785088500000008
decision_type=2 2 2 2 2 2 2 2 2 2 2 2 2 2 2 2 2 2 2 2 2 2 2 2 2 2 2 2 2 2 2 2 2 2 2 2 2 2 2 2 2 2 2 2 2 2 2
left_child=2 5 3 16 13 14 15 11 10 12 24 -5 -10 -3 17 32 21 33 19 -19 -20 -1 -23 -15 -9 26 -8 29 -29 -27 31 43 -7 34 -2 36 37 38 -4 -38 -40 42 -41 -18 -32 -25 -34
right_child=1 4 35 7 -6 6 25 8 9 -11 -12 -13 -14 23 -16 -17 30 18 20 -21 -22 22 -24 45 -26 27 -28 28 -30 -31 44 -33 46 -35 -36 -37 39 -39 40 41 -42 -43 -44 -45 -46 -47 -48
leaf_value=-0.0050616144817218836 -0.0044127694875504388 0.013794438449943046 0.0039550937348303518 0.0069176322168518108 0.0091613097800403893 0.013453425373952031 0.0057578018119051151 -0.0053201397990074581 -0.0063187580626326472 -0.010014113156010354 0.0081950501265267671 -0.0077409240139605113 0.01126582306007012 0.0040297462566147996 0.007471839470774253 0.0027994666720043493 -0.021441636783397212 0.010379823048944404 0.0016424754519788018 -0.00049118148695946541 0.0048927934642416914 -0.01415268155025373 -0.0075058507194778225 0.00036401357850726916 -0.002579190036237149 0.0058187513908621626 -0.0012641840252283856 0.0025322514314581952 0.0065404185742695539 -0.0003610313158953717 -0.0092511103096622575 -0.0075190855432037259 0.0022811474439404394 0.0015782639475906233 -0.00014033271735064366 -0.0069740726644490535 -0.0079492094659641115 0.0017914621061375651 -0.0019499172401473909 0.004409438356210325 -0.011571582616843828 -0.0070613760134086798 -0.0030142060191466397 0.0094234125645555281 -0.013973195721850627 0.0065458381075565626 0.022279995961417987
leaf_count=4672 5622 1507 2552 513 18686 2849 1619 18025 1042 6947 762 26622 525 18979 2265 1957 1449 967 34457 22402 8716 2931 4976 1294 17031 2026 5801 11212 8447 6327 6538 669 857 6137 7485 1820 2501 10079 38537 2496 710 2320 9626 54 3341 40031 129
internal_value=0 0.0368856 -0.0464056 -0.0678046 0.0659608 0.0187811 0.0348748 -0.0568577 -0.0459746 -0.0824966 -0.0372933 -0.074638 -0.00427306 0.0582059 0.0112463 0.0839717 -0.0995684 0.00957045 0.0147687 -0.000413436 0.0229867 -0.0814679 -0.0996973 0.0562132 -0.0398852 0.026849 0.00267972 0.0332511 0.0425446 0.0113786 -0.118462 -0.16386 0.112537 -0.00840427 -0.0197291 -0.0172952 -0.0159083 -0.0106423 -0.0175283 -0.0320322 -0.0212398 -0.0238133 -0.0148563 -0.203327 -0.108481 0.0635227 0.0489763
internal_count=376510 209772 166738 96097 80497 129275 41224 71467 44332 8514 35818 27135 1567 61811 88051 5792 24630 85786 66542 23369 43173 12579 7907 60304 35056 35432 7420 28012 19659 8353 12051 2172 3835 19244 13107 70641 68821 51878 41799 16943 39247 14442 12122 1503 9879 41325 986
shrinkage=0.1


Tree=20
num_leaves=48
num_cat=0
split_feature=6 6 6 6 6 6 6 0 4 6 1 1 3 5 4 2 1 3 6 4 6 2 6 3 4 0 0 0 1 5 5 6 0 4 2 5 2 6 3 6 0 5 3 3 5 6 4
split_gain=522.022 89.4421 84.2734 25.4748 13.2086 12.6978 13.1576 8.29116 9.25448 8.23197 7.93005 9.8769 7.69079 7.58642 6.51033 6.49269 7.1934 9.25453 6.13268 9.09582 6.62683 6.12414 5.86407 5.33758 5.24531 5.15522 5.42664 5.0727 5.70748 5.23806 4.86918 4.80164 4.7836 5.94443 4.51153 4.44087 5.34589 4.7475 4.34065 4.28178 4.27209 4.26967 4.74696 4.45298 4.11551 4.05721 3.94741
threshold=1.2824788592189644 1.8701087156926841 0.9042414945071402 0.51988461665863006 2.6302256210820629 1.6090248037977235 1.6777804875216178 37.781542000000009 -122.40618599999998 0.77494807708018898 -122.41456649999999 -122.40307849999998 37.791382000000013 17.083589553833011 -122.39347049999999 2.7284128665924077 -122.41012349999998 37.781542000000009 1.0513414492750235 -122.39046249999997 1.0610952910219928 13.692461013793947 0.88707403625772396 37.782005500000004 -122.3945385 37.776618000000006 37.777634500000005 37.785088500000008 -122.39046249999997 15.845633029937746 24.099235534667972 1.2746288390121583 37.777634500000005 -122.4008365 2.9127869606018071 2.7284128665924077 8.4017372131347674 1.8296975781441862 37.799247000000008 1.8064068875456856 37.791382000000013 3.0698237419128422 37.79519650000001 37.78437450000002 2.9127869606018071 3.3462207453964301 -122.3945385
decision_type=2 2 2 2 2 2 2 2 2 2 2 2 2 2 2 2 2 2 2 2 2 2 2 2 2 2 2 2 2 2 2 2 2 2 2 2 2 2 2 2 2 2 2 2 2 2 2
left_child=2 5 3 30 10 13 12 44 22 21 14 46 40 15 32 41 -17 -18 19 27 -20 -10 -9 -11 34 -22 -27 28 -4 -29 -1 -28 -3 -34 -13 36 -8 -37 -14 -38 -7 42 -2 -43 -5 -6 -12
right_child=1 4 18 7 45 6 35 8 9 23 11 24 38 -15 -16 16 17 -19 20 -21 25 -23 -24 -25 -26 26 31 29 -30 -31 -32 -33 33 -35 -36 37 39 -39 -40 -41 -42 43 -44 -45 -46 -47 -48
leaf_value=-0.0097595044050324247 -0.0039714924961064121 0.0013780400205295031 -0.0032409471836333924 -0.01037105336011312 0.0082040188506953809 0.012108082853180284 -0.00086425889083868593 0.0027696572255944407 -0.0053146745562101284 -0.009832435183249116 0.010842546506820351 0.0045689296397295283 0.0010521478488163152 0.006724655423838437 0.011543927843303775 -0.001443380843451592 0.00035338724502509888 0.0028806633582580468 0.0065744255602253306 -0.010317897484122825 0.0030683264735071798 -0.0089865727131243685 -0.013453057678680309 -0.0025970200467808169 0.0030564952600658541 -0.0074341454824451069 -0.0010218476726922968 -0.0012885307018631342 -0.012696742804583959 0.011993279756547725 0.0045194197246169361 -0.0062766652112575018 0.023083748877979815 0.0048671053572090159 0.0067991605877823049 0.0033421825774132205 0.0048644383629686564 -0.0018555150349276444 0.020051996156486663 0.027765985987452647 0.0046278006205599121 -0.00080006508085275578 -0.00012629963713044857 0.0046881448877382492 -0.0064897865777796592 0.016091274338026901 0.0054764491275512998
leaf_count=18156 5622 9179 15367 3256 14922 2849 6344 2276 28045 1098 5019 16051 1771 2265 846 8204 26813 31525 1123 1544 2659 5420 247 14274 8370 1473 39023 12770 666 304 242 1820 193 2493 20856 26128 987 1884 129 89 1043 3654 7485 2483 16975 682 1886
internal_value=0 0.0331971 -0.041765 -0.062527 0.0593647 0.016903 0.0313873 -0.0539977 -0.0472434 -0.0502945 0.0530833 0.0585392 0.0755746 0.0101217 0.0306853 0.0086134 0.0132919 0.0171909 -0.0174213 -0.0283838 -0.0101323 -0.0590938 0.0118146 -0.0311384 0.0531665 -0.0120269 -0.0147107 -0.0244162 -0.0363373 -0.00979699 -0.0957169 -0.0125601 0.0246421 0.0617605 0.0582922 0.0241641 0.00241175 0.029926 0.0234214 0.0675871 0.101035 -0.00756384 -0.0177562 0.0142044 -0.0711444 0.0854875 0.0937688
internal_count=376510 209772 166738 89989 80497 129275 41224 71591 51360 48837 64893 52182 5792 88051 12711 85786 66542 58338 76749 30651 46098 33465 2523 15372 45277 44975 42316 29107 16033 13074 18398 40843 11865 2686 36907 35432 7420 28012 1900 1076 3892 19244 13107 6137 20231 15604 6905
shrinkage=0.1


Tree=21
num_leaves=48
num_cat=0
split_feature=6 6 6 6 6 6 3 6 0 0 3 4 0 4 0 6 6 5 1 1 4 1 6 3 0 0 3 0 2 2 6 6 1 1 0 5 6 1 4 1 1 2 1 1 5 0 2
split_gain=422.884 100.943 41.5092 14.9712 13.8332 12.0399 9.95567 7.97249 7.78107 9.26487 10.5626 8.16833 9.12292 6.93214 6.37302 6.11209 5.83166 6.60322 6.87313 5.73042 5.25921 8.11809 9.37637 8.5266 6.53803 5.97166 5.62824 5.05776 7.51006 5.08741 5.05199 12.2139 4.95855 12.9954 10.3551 4.84152 4.57312 4.44784 4.15294 5.14247 4.04676 3.83634 3.8125 3.68347 6.46606 6.41314 5.12449
threshold=1.0879604877246583 1.7074042582870936 0.63242031710708069 2.2093281547771766 1.4187878066219861 0.94643015045360446 37.783065000000015 0.42216645006698611 37.796352500000005 37.790029000000004 37.794616000000012 -122.400938 37.799247000000008 -122.40618599999998 37.795408500000008 2.9385328117879186 2.2028202490642044 3.01521909236908 -122.41877849999999 -122.41456649999999 -122.3945385 -122.40307849999998 1.5378374329595483 37.775707000000004 37.78437450000002 37.78437450000002 37.776618000000006 37.777634500000005 8.4017372131347674 15.845633029937746 1.3943768775006988 1.3849931189947899 -122.39666100000001 -122.39827199999998 37.781185500000007 3.01521909236908 1.3740433533426721 -122.39188599999999 -122.39347049999999 -122.40281999999998 -122.40783899999998 7.4798960685729989 -122.41012349999998 -122.41877849999999 10.594522476196293 37.785802000000011 15.845633029937746
decision_type=2 2 2 2 2 2 2 2 2 2 2 2 2 2 2 2 2 2 2 2 2 2 2 2 2 2 2 2 2 2 2 2 2 2 2 2 2 2 2 2 2 2 2 2 2 2 2
left_child=2 4 7 16 19 6 32 43 9 10 -8 12 -10 -7 -11 27 17 37 -19 -2 21 22 26 24 -23 -25 -6 38 -29 -30 31 36 33 34 -4 -17 -21 -3 39 -5 -15 -20 -22 -1 46 -46 -45
right_child=1 3 5 15 20 13 8 -9 11 14 -12 -13 -14 40 -16 35 -18 18 41 30 42 23 -24 25 -26 -27 -28 28 29 -31 -32 -33 -34 -35 -36 -37 -38 -39 -40 -41 -42 -43 -44 44 45 -47 -48
leaf_value=-0.025052782674831131 -0.0046034453465793801 0.0032859887824483363 -0.0076133829239621005 0.00091989879186166385 0.0022661939669605924 0.0051704425249039379 -0.0029821055169275369 -0.0066500909952621826 -0.0054985160175192033 -0.001066149381809577 -0.0096186629140452354 -0.0078400452844849013 0.010669418821876398 0.005867897357919729 0.0086986962861344691 0.0078294289135657138 -0.0035675210766465864 -0.0027340474733465016 0.0062459017037654017 1.2310419739041866e-05 0.016148118358969208 -0.0067324652017313486 0.0042368930138218406 0.0053986418168205574 0.0053671951707667462 0.0025663744100505904 -0.0032786634661352795 0.0057781531995292137 0.014376851421843102 0.0079608233687102521 -0.0018420813159370172 0.013103968879937278 -0.0045096686532004543 -0.01710225973380932 0.0012979678173871039 0.014766966740546245 0.003380153628281347 -0.0033103361361397827 0.0094765952003871799 0.0054725325271947631 -0.0024366565957050276 0.0036690826095664821 0.00046020709259696506 -0.010619272698604035 -0.01020529622904408 0.0039792839089616656 -0.025271143616015665
leaf_count=164 2753 29434 8664 4194 2638 1290 14286 28004 958 11662 2882 6026 549 597 709 3733 1014 1059 19323 57487 156 1427 4081 12201 650 19095 5981 16015 1815 3873 11945 748 11520 1243 1535 1377 4336 1059 1369 6075 34277 8242 22169 6370 664 613 248
internal_value=0 0.0246616 -0.0455431 0.0493735 0.00793761 -0.0346963 -0.0433793 -0.0744771 -0.0332444 -0.0259282 -0.0409619 -0.0619331 0.00391462 -0.0202821 -0.00506512 0.0647842 0.039519 0.0408087 0.051717 -0.00123091 0.0182953 0.0243992 0.00288133 0.0325878 -0.0294586 0.0367056 -0.0158156 0.0598484 0.0688676 0.100081 0.000424358 0.00402196 -0.0597419 -0.074487 -0.0627218 0.096989 0.00248516 0.030569 0.043029 0.0361317 -0.0229449 0.0547543 0.00569829 -0.102193 -0.0991121 -0.0339625 -0.111683
internal_count=376510 244249 132261 98582 145667 96198 60034 36063 37072 29539 17168 7533 1507 36164 12371 38451 60131 59117 28624 77269 68398 46073 12700 33373 2077 31296 8619 33341 21703 5688 74516 62571 22962 11442 10199 5110 61823 30493 11638 10269 34874 27565 22325 8059 7895 1277 6618
shrinkage=0.1


Tree=22
num_leaves=48
num_cat=0
split_feature=6 6 6 6 6 0 0 6 6 0 4 6 0 4 2 5 2 5 5 0 0 2 6 3 1 2 3 4 5 0 3 6 6 1 3 2 0 6 4 2 1 4 1 6 6 6 6
split_gain=344.54 59.4805 55.3008 18.6694 8.94644 8.26497 8.80887 8.18095 10.4503 7.53811 7.36109 7.19629 7.13262 6.38491 6.21395 5.88994 5.63868 6.42967 5.32942 5.19721 4.93803 4.50172 6.32219 8.94089 5.04372 4.2445 4.21424 4.092 3.97426 3.89325 4.25752 4.79197 3.8916 3.77567 5.16516 5.83017 4.94703 4.38925 3.71882 7.29018 4.62807 22.1592 5.53244 4.22125 3.95407 7.09164 5.50419
threshold=1.2824788592189644 1.8701087156926841 0.94643015045360446 0.55966765656870132 2.5716409011053334 37.781185500000007 37.796352500000005 1.6090248037977235 1.6777804875216178 37.795408500000008 -122.40307849999998 1.9173379648196847 37.799247000000008 -122.39848049999999 26.160266876220703 17.083589553833011 5.8304147720336923 8.4017372131347674 17.083589553833011 37.790029000000004 37.794616000000012 2.7284128665924077 1.3317943432006967 37.785802000000011 -122.40486649999998 10.594522476196293 37.798531500000003 -122.39827199999998 4.3047842979431161 37.776618000000006 37.791857500000013 1.8000585330157184 0.59039565220066781 -122.39759699999999 37.790029000000004 3.3579128980636601 37.788710500000008 0.35411322130818579 -122.3945385 2.6283768415451054 -122.39878799999998 -122.39083549999999 -122.40410949999999 1.166840811531147 1.2746288390121583 1.1715419170243979 1.166840811531147
decision_type=2 2 2 2 2 2 2 2 2 2 2 2 2 2 2 2 2 2 2 2 2 2 2 2 2 2 2 2 2 2 2 2 2 2 2 2 2 2 2 2 2 2 2 2 2 2 2
left_child=2 7 3 13 11 32 9 15 14 19 12 -3 -8 16 -9 21 -1 26 20 -7 -13 -2 23 -23 -24 -20 -18 -22 -6 30 31 -10 -5 36 37 -36 -15 -35 39 -4 41 42 -40 -44 45 46 -41
right_child=1 4 38 5 28 6 10 8 29 -11 -12 18 -14 33 -16 -17 17 -19 25 -21 27 22 24 -25 -26 -27 -28 -29 -30 -31 -32 -33 -34 34 35 -37 -38 -39 40 44 -42 -43 43 -45 -46 -47 -48
leaf_value=-0.0029984588499626453 -0.00065605159527194041 0.011076809620928239 0.0034077457839540278 0.0075526656465458308 0.0058665571381222546 -0.0038562279417696044 -0.004971758408671703 0.008209003607111973 0.0019859522988118715 0.0070095179680113992 -0.0077704627028710276 0.0033881908813329052 0.009321969327927079 0.0069540712184139666 0.00030371086383763446 0.0058572980609650034 -0.011675773705541381 -0.0051917281091452263 0.0065869748270882518 -0.0015027637602590858 0.009827851684880741 0.016554359854281091 -0.00034860699196021932 0.0028744929254746463 0.001520333433192148 0.016983048592440108 0.013695578168688424 0.0048530312345014563 0.0091604393169814075 0.0013944081569261275 0.0096883438743454661 0.012585430106065538 -0.0059393844432104985 -0.017115470908768044 -0.0092199076815280556 0.00083178932459390697 -0.0072551130097638699 -0.010326784069673176 0.0016650685017045273 -0.0014279696652720662 -0.0038975679863852419 0.010979888230859235 -0.003884747424702717 -0.012632671422290062 -0.0059039156520378387 0.001536937694711013 -0.010313470483869052
leaf_count=4672 19244 1507 3725 216 13684 26672 1042 4517 4813 762 6947 45125 525 266 1275 2265 2864 4976 2314 14476 1965 592 22214 2476 41260 473 67 10427 5002 29021 1130 468 20827 1398 3605 687 3107 2988 1563 38537 10248 1342 3235 665 1710 8906 710
internal_value=0 0.0269696 -0.0339303 -0.0495446 0.048309 -0.0413621 -0.034415 0.0136821 0.0253082 -0.0284577 -0.0637397 0.0425126 -0.00182858 -0.0732873 0.064688 0.00823888 -0.0575281 -0.0738028 0.0408069 -0.0302827 0.0387375 0.00690991 0.0108056 0.0551415 0.0086626 0.0835136 -0.110958 0.0564189 0.0674829 0.0188709 0.0411733 0.0292527 -0.0580089 -0.089737 -0.100772 -0.0761098 -0.0613455 -0.124906 -0.0126893 -0.00859635 -0.0255513 -0.00533486 -0.0336178 -0.0537638 -0.0117843 -0.0101062 -0.0158871
internal_count=376510 209772 166738 96097 80497 71467 50424 129275 41224 41910 8514 61811 1567 24630 5792 88051 12579 7907 60304 41148 57517 85786 66542 3068 63474 2787 2931 12392 18686 35432 6411 5281 21043 12051 8678 4292 3373 4386 70641 53588 17053 6805 5463 3900 49863 48153 39247
shrinkage=0.1


Tree=23
num_leaves=48
num_cat=0
split_feature=6 6 6 6 0 6 6 6 6 0 1 2 2 4 3 2 5 0 1 6 3 1 1 4 5 5 5 4 2 6 2 6 6 3 5 0 5 6 4 1 5 5 6 4 1 3 5
split_gain=279.078 48.1792 46.7912 10.7086 10.0538 9.41536 7.60802 6.62657 8.46477 6.36038 7.57912 6.112 7.6618 7.60124 5.37587 5.35772 6.9017 6.19353 8.36908 6.36142 5.70791 4.97798 4.80799 5.88104 4.77085 4.08574 6.20802 3.9446 3.71399 3.68495 3.67579 7.27734 6.13568 5.88808 3.95469 3.70453 3.64484 3.58024 3.49874 5.55774 3.37619 3.37252 3.36255 3.98849 5.7456 4.34972 4.16057
threshold=1.2824788592189644 1.8701087156926841 0.76140084824563925 1.0295279737972127 37.776608500000009 0.46119046009272396 2.9385328117879186 1.6090248037977235 1.6777804875216178 37.777634500000005 -122.40307849999998 8.4017372131347674 4.9984030723571786 -122.39046249999997 37.791382000000013 13.692461013793947 2.5248224735260014 37.789690500000006 -122.40334299999999 0.50260700634936495 37.795408500000008 -122.40486649999998 -122.40281999999998 -122.39347049999999 17.083589553833011 2.8077048063278203 3.3579128980636601 -122.4008365 2.8077048063278203 1.0057070400948636 2.826690793037415 1.3317943432006967 1.3716663371138214 37.785802000000011 6.8346450328826913 37.791382000000013 3.01521909236908 0.87375287608257624 -122.39848049999999 -122.400938 13.692461013793947 17.083589553833011 1.2746288390121583 -122.4008365 -122.40783899999998 37.783065000000015 20.237852096557621
decision_type=2 2 2 2 2 2 2 2 2 2 2 2 2 2 2 2 2 2 2 2 2 2 2 2 2 2 2 2 2 2 2 2 2 2 2 2 2 2 2 2 2 2 2 2 2 2 2
left_child=2 7 5 4 -4 38 9 24 14 22 27 12 13 -6 -9 16 28 19 -19 -18 40 29 23 -3 30 -24 -27 -11 -7 -13 34 33 -33 -32 -2 -36 -8 -14 -1 -40 -17 -12 43 44 46 -46 -5
right_child=1 6 3 42 11 15 36 8 -10 10 41 21 37 -15 -16 20 17 18 -20 -21 -22 -23 25 -25 -26 26 -28 -29 -30 -31 31 32 -34 -35 35 -37 -38 -39 39 -41 -42 -43 -44 -45 45 -47 -48
leaf_value=-0.005990671424486311 -0.0010346736676404434 0.00076789684592502795 -0.0051680970902835445 -0.0036420669873294766 -0.0010042430633832823 -0.011013932478525263 0.0064598303579984726 0.0079505537662925389 0.0016983795553358499 0.0089363933724727011 0.0037295963283395552 -0.0017169594692562459 -0.0074215178831281252 -0.0083179251536565253 0.0014615870673672026 -0.0071987418766084714 -0.016490156461777008 0.011916764948836511 -0.0026248605910568494 -0.0046839735786373968 -0.01823304911465427 0.0018750921075216436 0.0025415600006625846 0.0095858488063334697 0.0052715682688595266 0.011068184788166761 0.0043003329239759231 0.0054224495321496891 -0.005548789715889302 -0.01650691554986608 0.01489892378956852 -0.0012212017109858046 0.0012802261782609145 0.0036097228413399548 0.013240104177511381 0.0016871951953968773 0.012479238025536838 -0.0035426571347866838 0.013451353098664964 -0.0097401803603353546 -0.00040836644401531682 0.0079993358005679398 -0.0050719646626065113 -0.0013404106253771828 0.0050709977113706523 0.00059995774935505872 0.0084654107439716721
leaf_count=5695 18821 10678 13725 3916 16498 1937 3733 3892 35432 5497 27956 6420 3966 1555 1900 6449 470 406 15720 15759 434 6004 10429 814 2265 1602 8803 7627 3473 173 592 12256 49051 2104 310 2652 1377 5949 105 6509 826 1981 1820 34249 2673 11701 306
internal_value=0 0.0242727 -0.0305373 -0.0183378 -0.0282859 -0.0535405 0.0434781 0.0123138 0.0227774 0.040947 0.0489054 -0.0203702 -0.0286082 -0.0163421 0.0582192 -0.0468993 -0.0419951 -0.0364672 -0.0225875 -0.0502589 -0.0709238 -0.00208028 0.0303457 0.0139249 0.00741499 0.0394034 0.0534234 0.0689427 -0.0750553 -0.0210505 0.00621892 0.0100377 0.00780161 0.0608866 -0.00500148 0.0289631 0.0808189 -0.050942 -0.0780756 -0.0937201 -0.0642777 0.0401213 -0.00845801 -0.00700251 0.00478757 0.014314 -0.0276455
internal_count=376510 209772 166738 108955 54290 57783 80497 129275 41224 75387 43061 40565 27968 18053 5792 45474 37765 32355 16126 16229 7709 12597 32326 11492 88051 20834 10405 13124 5410 6593 85786 64003 61307 2696 21783 2962 5110 9915 12309 6614 7275 29937 54665 52845 18596 14374 4222
shrinkage=0.1


Tree=24
num_leaves=48
num_cat=0
split_feature=6 6 6 6 3 6 0 4 0 3 0 0 1 4 4 1 4 4 2 1 6 3 4 5 1 6 6 0 6 1 1 0 1 3 3 3 6 6 6 4 5 1 0 0 5 0 2
split_gain=226.738 54.5073 23.0271 8.84554 7.85618 7.14853 6.55398 6.63884 6.40109 6.30838 7.89998 6.12694 5.54439 5.08144 4.7764 6.61021 9.00004 5.56666 5.07691 4.77252 6.27937 5.74777 6.1857 4.78839 4.71003 4.64386 4.58735 6.27758 4.55568 6.10249 7.6725 8.96991 4.53393 4.65769 4.01788 7.49488 6.1571 3.98831 8.49872 5.61337 3.66193 3.78106 3.30377 3.19922 4.56053 4.92333 3.5178
threshold=1.0879604877246583 1.7074042582870936 0.63242031710708069 2.3931735328025368 37.783065000000015 1.4187878066219861 37.796352500000005 -122.400938 37.795408500000008 37.79519650000001 37.789690500000006 37.799247000000008 -122.40846599999999 -122.39431849999998 -122.39495149999998 -122.39495149999998 -122.41456649999999 -122.40618599999998 3.01521909236908 -122.40618599999998 1.0946733378356286 37.796352500000005 -122.39495149999998 17.083589553833011 -122.39536499999998 0.42216645006698611 1.4637997264605123 37.791857500000013 0.90028351036391918 -122.39666100000001 -122.39827199999998 37.781185500000007 -122.39083549999999 37.775707000000004 37.789300000000004 37.78437450000002 1.3683046451529268 1.5378374329595483 1.5322739289948772 -122.3945385 4.3047842979431161 -122.39347049999999 37.772936000000009 37.775707000000004 10.594522476196293 37.78437450000002 15.845633029937746
decision_type=2 2 2 2 2 2 2 2 2 2 2 2 2 2 2 2 2 2 2 2 2 2 2 2 2 2 2 2 2 2 2 2 2 2 2 2 2 2 2 2 2 2 2 2 2 2 2
left_child=2 5 25 12 28 19 8 11 9 24 -11 -8 13 -3 15 16 -14 -17 -16 21 -21 22 23 -2 -6 43 27 -7 29 30 31 -4 37 -34 35 -22 -36 38 -28 -39 -5 42 -42 -1 46 -46 -45
right_child=1 3 4 40 6 26 7 -9 -10 10 -12 -13 14 -15 18 17 -18 -19 -20 20 34 -23 -24 -25 -26 -27 32 -29 -30 -31 -32 -33 33 -35 36 -37 -38 39 -40 -41 41 -43 -44 44 45 -47 -48
